data,0.202806264162064,-0.127246826887131,-0.072398342192173,0.940016150474548,-0.357829689979553,1.03883790969849,0.066632822155953,0.606580257415772,0.429790169000626,0.4173444211483,0.266545355319977,-0.094662219285965,-0.479863673448563,-0.275699108839035,0.123095005750656,-0.178617775440216,0.380665242671967,0.230028390884399,-0.07675763964653,-0.216260954737663
mining,0.354502737522125,-0.198113158345223,-0.7085120677948,1.74437463283539,0.20176950097084,0.415235966444016,-0.760029733181,0.504229426383972,0.579347312450409,-0.387042880058289,0.092280387878418,0.257926881313324,-0.252172499895096,0.038300257176161,0.653456032276154,0.640295386314392,0.824884057044983,0.538529813289642,-0.01337881013751,-1.05240094661713
pergerakan,0.026500018313527,-0.588965713977814,-0.760429263114929,0.700219094753265,0.091361843049526,0.284958273172379,-0.591158986091614,-0.473279118537903,0.25267481803894,-0.752325415611267,0.334754168987274,-1.14433479309082,-0.954412400722504,-0.363597363233566,0.642063975334168,0.247552052140236,-0.151784777641296,0.050171665847302,0.031486548483372,0.072146028280258
nilai,0.306997656822205,-0.365214645862579,-0.135372087359428,1.01477086544037,-0.007119977846742,0.049080744385719,-0.176886290311813,0.361075878143311,0.552397727966309,-0.179230317473412,0.3890560567379,-0.46130821108818,-0.287190556526184,-0.924649357795715,0.203475415706634,0.079994507133961,0.052996292710304,-0.574035882949829,0.020323319360614,0.832764267921448
mata,1.17436325550079,-0.570744574069977,-0.647367537021637,1.30293464660645,0.003109109355137,0.65397709608078,-0.571755707263947,-0.662006437778473,-0.476044684648514,-0.290289312601089,0.423915326595306,-0.682262897491455,-0.951463460922241,0.534260630607605,0.961171925067902,0.414095193147659,0.515984833240509,-0.463998347520828,0.007654073648155,0.828896403312683
uang,-0.074534825980663,-0.096096135675907,-0.981296181678772,1.08450937271118,0.131482437252998,0.97298938035965,-0.835317730903626,0.016961650922895,-0.751929342746735,-0.610274195671081,0.143015265464783,-0.946546971797943,-0.618441164493561,0.572841107845306,0.94271856546402,-0.090183645486832,0.057157553732395,-0.208700820803642,-0.044331509619951,0.522820472717285
exchange,1.03831565380096,-0.413888573646545,-0.319183528423309,0.802196383476257,-0.658782422542572,0.131557583808899,-0.743697106838226,-0.272177457809448,-0.67151814699173,-0.634087860584259,0.74051171541214,-0.788667023181915,0.223713144659996,-0.23426628112793,-1.28237462043762,-0.648149073123932,0.523642241954803,-0.681962132453918,-0.306714832782745,-0.186699435114861
pasar,-0.220612660050392,-0.321955919265747,-0.227693632245064,1.10632503032684,-0.145546928048134,0.042855829000473,-0.276672452688217,0.578780353069305,-0.669437289237976,-1.57305288314819,0.149336770176887,-0.840327203273773,-0.439283967018127,0.299909234046936,0.081574618816376,0.139074012637138,0.292987287044525,0.146174937486649,-0.111979089677334,0.156502574682236
market,0.399767607450485,-0.008971847593784,-0.216266825795174,0.74213969707489,-0.656689703464508,-0.332791268825531,-0.158919185400009,-0.109470047056675,0.027531001716852,-0.992929697036743,-0.006846056785434,-1.15953958034515,-0.026713388040662,-0.356578648090363,-0.091323330998421,0.115497067570686,0.056321553885937,-0.090430863201618,-0.800950586795807,-0.47618767619133
global,-0.175706699490547,-0.495087414979935,-0.12273033708334,1.24217343330383,0.226570606231689,-0.104174673557282,0.249725565314293,0.351594418287277,-0.000591165095102,-1.06976330280304,0.123234033584595,-0.19141012430191,-0.293887078762054,-0.339370518922806,-0.047135833650828,-0.261522203683853,0.173541069030762,-0.434964329004288,0.244226694107056,-0.363442450761795
aset,-0.42262265086174,-0.710189938545227,-0.166245266795158,1.10805940628052,-0.607335805892944,1.32960963249207,-0.876023650169373,-0.213933020830154,-0.449275434017181,-0.903121888637543,0.42169252038002,-0.676772654056549,0.624607682228088,0.30917826294899,0.052270147949457,-0.124215222895145,0.730654299259186,0.273011386394501,-0.440014719963074,0.418595790863037
sangat,-0.174465045332909,-0.497308552265167,-0.360674321651459,0.834909021854401,-0.213126048445702,0.28779461979866,0.157543331384659,0.006765026133507,-0.042503274977207,-0.689782738685608,0.273487478494644,-0.245841592550278,-0.621615529060364,0.277403950691223,0.303161442279816,-0.430396318435669,0.641561150550842,-0.128329008817673,0.105085983872414,-0.175596028566361
keberadaannya,-0.19419202208519,-0.398267269134521,-0.441900283098221,0.620329916477203,-0.34152752161026,0.498362064361572,-0.395612090826035,0.03383344039321,-0.169625520706177,-0.499343544244766,0.568477869033814,-0.266425102949142,-0.657245814800262,0.35547348856926,0.364139050245285,-0.606478273868561,0.342461705207825,-0.031967461109161,-0.349709063768387,-0.22286556661129
erat,-0.226767554879189,-0.308135420084,-0.210967496037483,0.994715988636017,-0.288581758737564,0.14647401869297,-0.25903257727623,-0.018590517342091,-0.345929384231567,-0.966401517391205,-0.109800361096859,-0.536071062088013,-0.581057786941528,0.239404872059822,0.199746057391167,-0.153284952044487,0.416115462779999,0.129663094878197,-0.482379347085953,0.053599499166012
perkembangan,-0.618915617465973,-0.769695997238159,-0.360198795795441,0.712746024131775,-0.081749692559242,0.021495316177607,-0.163000613451004,0.429375946521759,-0.750012814998627,-0.717759311199188,-0.224372431635857,0.006797391455621,-1.26920139789581,0.007458119187504,0.145966365933418,-0.159352466464043,0.772318780422211,-0.18338905274868,0.0799780189991,-0.306909590959549
transaksi,-0.165020659565926,0.332142859697342,-0.160531729459763,1.22153913974762,-0.60066419839859,0.54800546169281,-0.917759776115418,0.331636607646942,0.089622423052788,-0.570463120937347,-0.346250057220459,-0.566497087478638,-0.709337174892426,0.704958498477936,0.786058485507965,-0.096113748848438,0.12320177257061,-0.036210983991623,-0.720303237438202,-0.13577064871788
perdagangan,-0.789495289325714,-0.77239990234375,-0.527537524700165,0.942003011703491,0.202707037329674,0.791217565536499,-0.960823714733124,0.368916243314743,-0.214796543121338,-0.531665027141571,-0.023992087692022,-0.51018214225769,-0.543046891689301,0.433699160814285,0.13657283782959,0.006706562358886,0.494814783334732,-0.268911123275757,-0.764166176319122,-0.036580804735422
dunia,-0.469935953617096,-0.553075194358826,-0.342737376689911,0.565556049346924,-0.093482963740826,-0.211901023983955,-0.058150790631771,0.376547366380692,-0.164425194263458,-0.840685307979584,0.249511018395424,-0.839745938777924,-0.678716719150543,0.164958044886589,0.614551663398743,-0.433570325374603,0.833671510219574,-0.226647883653641,0.086792275309563,-0.51071172952652
dimana,-0.044525295495987,-0.46586474776268,0.033248856663704,0.628984987735748,-0.248596474528313,0.357560336589813,0.207620844244957,0.119303077459335,-0.009870048612356,-0.224644124507904,0.374945014715195,-0.324030756950378,-0.310915976762772,-0.384928941726685,0.017894817516208,-0.465565294027329,0.006919381208718,-0.051457215100527,-0.21810182929039,-0.199468538165093
negara,-0.596971154212952,-0.373336136341095,-0.262520253658295,0.943401157855988,0.231139093637466,0.655212342739105,-0.895728886127472,0.346781611442566,-0.779566705226898,-0.009730442427099,0.695244491100311,-0.565662324428558,0.361126184463501,0.021895615383983,0.619161367416382,-0.82178521156311,0.502098202705383,-0.261993378400803,-0.472313314676285,-0.068123660981655
detik,-0.034943822771311,-0.393936932086945,-0.999145865440369,1.23528742790222,-0.625312387943268,-0.127481386065483,0.095012523233891,-0.426194846630096,0.874097466468811,-0.054328966885805,0.629467666149139,-0.499064922332764,-0.883118510246277,-0.236417055130005,0.934262871742248,-0.497895479202271,-0.698971211910248,-0.253525853157043,0.572622776031494,0.15936690568924
arah,-0.289826571941376,-0.978870451450348,-0.165337920188904,0.981760203838348,0.455001592636108,0.057309042662382,0.104140676558018,0.031841810792685,-0.197525680065155,-0.586563587188721,0.787562072277069,-0.357072770595551,-0.128335312008858,-0.529564678668976,0.186644017696381,-0.294908583164215,-0.020178409293294,0.297673404216766,-0.256367594003677,-0.079578578472138
mekanisme,0.019842315465212,-0.606435835361481,-0.427297472953796,0.904913246631622,-0.524046659469605,0.259994804859161,-0.033454433083534,-0.504508674144745,-0.153503492474556,-0.250992268323898,0.502599596977234,-0.041618417948485,0.18259160220623,0.106414325535297,-0.115319326519966,0.086438417434692,0.154485762119293,-0.415591418743134,-0.374544203281403,-0.034870844334364
supply,-0.056138947606087,-0.330327600240707,0.030929466709495,0.877111852169037,-0.150950714945793,0.209907501935959,-0.337197333574295,0.382226169109344,-0.302984684705734,-0.390188664197922,-0.206341341137886,-0.90599936246872,0.329093813896179,-0.35826376080513,-0.180881842970848,-0.17858698964119,-0.148381903767586,-0.325208067893982,-0.577538967132568,-0.508002281188965
demand,0.276157587766647,0.283783257007599,-0.374760031700134,0.878967046737671,-0.531726837158203,0.057606048882008,-0.006715700961649,0.450761079788208,-0.357225358486176,-0.297705113887787,-0.361165434122086,-0.54125702381134,-0.181819781661034,-0.192388951778412,0.17693604528904,-0.357670903205872,-0.037222765386105,-0.175017103552818,-0.367249011993408,-0.288962125778198
pelaku,-0.502141356468201,0.084457755088806,0.182988792657852,1.16072058677673,-0.102805137634277,0.24410317838192,-0.462719529867172,0.044093079864979,-0.503689169883728,-1.30211508274078,0.005157376173884,-1.04837679862976,-0.888258755207062,0.31857305765152,0.793014705181122,-0.353828310966492,0.521556437015533,-0.171758651733398,-0.216785669326782,-0.2438083589077
sistem,0.247843042016029,-0.723012030124664,-0.410656869411469,0.550912618637085,-0.280128449201584,0.491546720266342,-0.062026862055063,0.420149475336075,-0.463077813386917,0.176466271281242,0.063528500497341,0.058059401810169,-0.38301482796669,0.111526653170586,0.303039640188217,-0.476640820503235,-0.245275929570198,-0.485272765159607,-0.435317575931549,-0.177918702363968
bebas,-0.338230729103088,-0.377673834562302,-0.533700466156006,0.458224147558212,0.028179068118334,0.682816743850708,-0.399023681879044,0.197168946266174,-0.147798806428909,-0.643157720565796,0.742416441440582,-0.363801449537277,-0.458638936281204,-0.189810782670975,0.468985766172409,-0.337903261184692,0.470822095870972,-0.157054886221886,-0.126427501440048,-0.236574843525887
memprediksi,0.518901288509369,-0.223182871937752,-0.606946051120758,1.20457887649536,-0.538058519363403,0.214294210076332,-0.062849342823029,0.008039906620979,0.606284320354462,-0.548258304595947,0.019729129970074,0.224729642271996,-0.47739052772522,-0.253862977027893,0.953654408454895,0.176232665777206,0.448449909687042,0.251435905694962,-0.049746822565794,0.117319516837597
analisis,0.450360119342804,-0.256401270627975,-0.140547856688499,0.598325610160828,-0.052754279226065,0.380812227725983,-0.172701701521874,0.474436163902283,-0.234227284789085,0.193317115306854,-0.491883516311646,-0.469225466251373,-0.487660050392151,-0.848923802375793,-0.135055720806122,-0.576114892959595,0.278228431940079,0.047796543687582,-0.269904434680939,-0.150717556476593
kelompok,0.872720956802368,-0.175171136856079,-0.508579254150391,0.55883526802063,-0.302688091993332,0.304927259683609,-0.567715466022491,0.015735441818833,-0.18006432056427,0.005106621887535,0.855677008628845,-0.665690362453461,-0.342510253190994,-0.97760945558548,0.238052293658257,-0.268897622823715,-0.333396375179291,0.004711299668998,-0.175580635666847,0.729729354381561
fundamental,0.234231248497963,-0.392439812421799,-0.207069203257561,0.886657297611237,-0.175711840391159,0.588712215423584,-0.505546033382416,-0.139075696468353,-0.037349402904511,-0.604030549526215,0.216934889554977,-0.731352746486664,-0.345851451158524,0.198269948363304,0.339627265930176,-0.072743616998196,0.301284402608871,-0.138273879885674,0.051715973764658,0.135455176234245
namun,-0.128201186656952,-0.374353170394898,-0.233447596430778,0.811179757118225,-0.292735904455185,0.01692988537252,0.105421580374241,0.24928742647171,-0.099486418068409,-0.503479599952698,0.405791819095612,-0.160669073462486,-0.49382096529007,0.115559719502926,0.184525042772293,-0.672999441623688,0.212217912077904,-0.19926942884922,-0.256281793117523,0.231732919812202
alat,0.034850876778364,-0.247767746448517,0.381989538669586,0.68861722946167,-0.305529862642288,0.582636177539825,0.116903461515903,0.085698768496513,-0.374036759138107,0.097970351576805,-0.080232389271259,-0.258340656757355,-0.480174332857132,-0.438134282827377,0.590973079204559,-0.128224015235901,-0.541677951812744,-0.307105392217636,-0.710452795028687,-0.778632283210754
sulit,0.276053428649902,-0.663393557071686,-0.257281213998795,0.648623645305633,-0.370865523815155,0.161117509007454,0.118843525648117,-0.728612244129181,-0.065293453633785,-0.469456106424332,0.57308828830719,-0.647619545459747,-1.00867998600006,0.284847885370255,0.267267733812332,-0.311591476202011,0.259792000055313,-0.410066157579422,0.018647795543075,0.057337608188391
pendekatan,0.891138315200806,-0.236603260040283,-0.114445671439171,0.377778947353363,-0.593085408210754,0.18946398794651,-0.089897945523262,0.570232450962067,-0.173245802521706,-0.050652634352446,-0.007715484127402,-0.171880424022675,-0.634091258049011,-0.872212469577789,-0.033617377281189,-0.160089552402496,-0.019922576844692,-0.007216251455247,-0.31049257516861,-0.462119102478027
proyek,0.189280331134796,-0.409891605377197,0.939765453338623,1.84080851078033,0.200445666909218,0.404803723096848,-0.348379045724869,0.329792976379395,-0.910248875617981,-0.717384874820709,-0.021608863025904,-0.235799506306648,-0.470428675413132,-0.345733225345612,-0.201370686292648,-0.713004291057587,-0.677034795284271,-0.028196211904287,0.543241798877716,0.238877192139626
pola,0.453545123338699,-0.522100031375885,-0.390884757041931,0.915870606899262,-0.043891850858927,0.225895151495934,-0.506564676761627,-0.48269534111023,0.322738707065582,-0.215089723467827,0.455321311950684,-0.187359869480133,-0.235366404056549,-0.432080626487732,0.325948446989059,-0.006371145136654,0.010826721787453,0.633363783359528,-0.509263813495636,-0.714433610439301
metodologi,0.332525372505188,-0.985721349716186,0.342560410499573,0.825398504734039,-0.557937622070313,0.391413539648056,-0.324555218219757,0.401257425546646,-0.669592380523682,-0.229205027222633,0.13251419365406,-0.045185524970293,0.113423742353916,-0.805261254310608,-0.643825113773346,-0.095703981816769,-0.424899965524674,0.650191307067871,-0.696828603744507,-0.284530013799667
diperoleh,0.911543548107147,-0.013493295758963,-0.244085028767586,0.931602478027344,-0.664614260196686,0.098662458360195,-0.194025561213493,-0.247284427285194,-0.16352254152298,0.239306375384331,0.381655752658844,-0.232752159237862,-0.558740317821503,-0.523978173732758,0.257817476987839,-0.483107894659042,0.245971128344536,0.281745344400406,-0.349914908409119,0.366247475147247
association_rules,0.618743300437927,-0.761362552642822,-0.428325533866882,0.847220122814178,-0.331360936164856,0.093717195093632,-0.662014663219452,-0.023435682058334,0.518304526805878,-0.170737564563751,0.338098853826523,-0.605336666107178,-0.331036120653152,-0.333754032850265,0.341226637363434,0.321489751338959,-0.323379963636398,0.097111038863659,-0.034208469092846,-0.758838713169098
kecenderungan,-0.095247358083725,-0.247113302350044,-0.169952288269997,0.667461752891541,-0.493272960186005,0.274291634559631,0.179396316409111,-0.013354658149183,-0.026284940540791,-0.09817885607481,0.083805128931999,-0.486055999994278,-0.245640501379967,-0.315774083137512,0.412592172622681,-0.509904682636261,-0.168363153934479,-0.402704358100891,-0.208829835057259,0.116951555013657
anil_simulasi,0.126937404274941,-0.861258864402771,-0.496471732854843,1.02150273323059,-0.479467183351517,-0.070971228182316,0.2974593937397,-0.308767527341843,0.227087423205376,0.363013744354248,-0.062191396951676,-0.60277396440506,0.009066301397979,-0.221733465790749,0.837273597717285,-0.396748155355453,-0.675167739391327,-0.159260004758835,-0.25061622262001,-0.186140596866608
terbaik,0.067138783633709,-0.481450855731964,-0.534092128276825,0.687437295913696,-0.622931778430939,0.178991243243218,-0.58523416519165,-0.127658233046532,0.792831540107727,-0.389093279838562,0.691438615322113,0.120850272476673,-0.084822133183479,-0.813328683376312,0.656734883785248,0.147661194205284,0.053359944373369,-0.986655175685883,-0.424582719802856,0.12813626229763
harga,-0.488517373800278,-0.031514041125774,0.04441899433732,1.48967111110687,0.117434233427048,-0.072422474622727,-0.372156649827957,-0.052845783531666,0.248076379299164,-0.754570543766022,0.124774605035782,-1.2592157125473,-0.879952609539032,0.160080164670944,0.802439510822296,0.242074206471443,-0.253334313631058,0.292009860277176,-0.711195588111877,0.157213300466538
loss,0.18475016951561,-0.740890085697174,-0.672447025775909,0.8307084441185,-0.379227012395859,0.138908684253693,-0.007984936237335,-0.070252314209938,0.681274175643921,-0.291837275028229,0.305754125118256,-0.425291568040848,-0.145873636007309,-0.343352198600769,0.383305758237839,-0.119844526052475,-0.104127235710621,-0.409020513296127,0.09953074157238,0.012426536530256
minggu,0.522536933422089,-0.196454137563705,-0.648656964302063,0.473274677991867,-0.663977086544037,-0.001177127938718,-0.272202342748642,0.326174199581146,-0.015589290298522,-0.522687971591949,0.460316151380539,-0.111758515238762,-0.891572058200836,-0.260638117790222,0.720226466655731,-0.502090275287628,-0.002530121477321,0.034009963274002,-0.297345846891403,0.453360319137573
program,-0.246901944279671,-0.148303836584091,-0.091023556888104,1.11745190620422,0.095961436629295,-0.059871919453144,-0.404866933822632,-0.01409010309726,-0.562504410743713,0.395413815975189,0.473093271255493,0.275583833456039,-0.029013322666288,-0.234821513295174,0.550289869308472,-0.522513270378113,0.349419146776199,-0.366259872913361,-0.394910216331482,-0.400190979242325
simulasi,0.258580803871155,-1.24992799758911,-0.753893256187439,0.98962676525116,-0.548744142055512,-0.90528005361557,0.272266536951065,-0.340164035558701,-0.289607793092728,0.659244775772095,-0.260150879621506,-0.755913436412811,0.200435161590576,0.147339880466461,0.850398540496826,-0.283709675073624,-0.299306839704514,-0.07751701772213,-0.432823151350021,-0.71602076292038
keuntungan,-0.277728885412216,-0.452215164899826,-0.281288683414459,1.09133982658386,0.061259064823389,0.045004189014435,-0.172406688332558,0.425479173660278,-0.508439004421234,-1.11094439029694,-0.350048840045929,-1.08871579170227,-0.202050864696503,-0.253090053796768,0.457802504301071,-0.454790592193604,-0.048423670232296,0.105825744569302,-0.338313788175583,0.548928499221802
bersih,-0.984981775283814,0.113443933427334,-0.397851496934891,1.12104856967926,0.041611384600401,0.387406587600708,-0.195894852280617,0.569033861160278,-0.664947092533112,0.292289972305298,0.356176167726517,-0.315576434135437,-0.068448826670647,-1.01172339916229,0.521547436714172,-0.921490252017975,0.041550740599632,0.219909325242043,-0.534246981143951,0.665504515171051
kebutuhan,-0.047294367104769,-0.722792267799377,0.093790553510189,0.823393166065216,-0.73673290014267,0.206435024738312,0.105123683810234,0.189837247133255,-0.592795014381409,-0.124387122690678,0.049467012286186,-0.390392333269119,-0.341991007328033,0.191126272082329,-0.508815884590149,-0.295371294021606,-0.000321998697473,0.397985249757767,-0.40483632683754,0.063043802976608
dana,0.21252703666687,-0.62463790178299,-0.288173824548721,1.36977934837341,0.019895108416677,0.539065062999725,-0.652210295200348,0.31266576051712,-0.059243232011795,-0.726413369178772,0.412748396396637,-0.420667350292206,0.220187857747078,0.46222311258316,1.03016638755798,-0.742588043212891,-0.073966950178146,0.311822414398193,-0.76599645614624,0.144464805722237
persentase,-0.044637054204941,-0.430757850408554,0.027855109423399,1.18259382247925,0.102476388216019,0.015253813005984,0.226964548230171,0.049558009952307,0.351690471172333,-0.151504963636398,0.189555987715721,-0.22114109992981,-0.613588094711304,-0.514817357063293,0.568642556667328,-0.38445782661438,-0.193837225437164,-0.125537395477295,-0.282498627901077,0.436195522546768
automated,0.255956798791885,-0.434497207403183,-0.395382344722748,0.850267708301544,-0.69139552116394,0.085192412137985,-0.251758009195328,0.365693807601929,-0.180998608469963,0.338717699050903,0.042821612209082,-0.304940283298492,-0.222060263156891,0.268928706645966,0.155102372169495,0.088459998369217,-0.517913401126862,-0.087571777403355,-0.059975706040859,-0.496248424053192
bantu,0.245642691850662,0.012943805195391,0.744510173797607,1.22099173069,-0.247508302330971,0.690096735954285,0.043500926345587,-0.063306048512459,-1.02313566207886,0.278315275907516,-0.33886045217514,-0.581507086753845,-0.313641667366028,-0.592083096504211,0.320113748311996,0.262034237384796,-0.774948060512543,-0.136988416314125,-0.745352506637573,-0.750341594219208
information,-0.332768023014069,0.1282609552145,-0.435042083263397,0.815381646156311,-0.407110869884491,0.372793436050415,-0.259867936372757,1.12127780914307,-0.780547797679901,-0.431806147098541,-0.44945240020752,-0.45638045668602,0.124143674969673,-0.941544890403748,-0.461110651493073,0.23883843421936,0.275022327899933,-0.40223816037178,0.237828999757767,-0.19734862446785
teknologi,-0.504598736763001,-0.877329528331757,-0.079070366919041,0.575772702693939,-0.262964159250259,0.355033397674561,-0.151327550411224,0.254380345344543,-0.628948092460632,-0.032438419759274,-0.613957524299622,-0.258240848779678,-0.493212670087814,-0.182522401213646,0.185950845479965,-0.289695560932159,0.681333839893341,-0.05667906999588,-0.067450173199177,-0.227051377296448
informasi,-0.374612241983414,-0.437310039997101,-0.249450549483299,0.443752318620682,-0.396610081195831,1.01130056381226,-0.462731450796127,-0.082852892577648,-0.307100296020508,-0.125442028045654,0.020685384050012,-0.212292104959488,-0.681631505489349,-0.059882137924433,0.035103756934404,-0.215266138315201,0.765155255794525,-0.114906184375286,-0.337159484624863,-0.085742495954037
penting,-0.237825468182564,-0.480914145708084,-0.231564298272133,0.789557278156281,-0.178632348775864,0.276114940643311,-0.031361874192953,-0.12950924038887,-0.198865160346031,-0.601237297058106,0.29701566696167,-0.438002109527588,-0.265992641448975,0.095500655472279,0.125145748257637,-0.319131910800934,0.796651959419251,-0.051208138465881,-0.133493021130562,-0.181394770741463
operasional,-0.616155624389648,-0.718502402305603,0.031503465026617,1.32952988147736,-0.303257048130035,0.680664122104645,-0.048966441303492,-0.225426018238068,-0.283096581697464,-0.577774703502655,-0.02269565500319,-0.561774134635925,0.158575415611267,0.134002476930618,-0.195624649524689,-0.152993232011795,0.041753087192774,0.42135763168335,-0.988698542118072,0.06916768848896
perusahaan,-0.328786432743072,-0.49353763461113,0.375163465738296,1.15252959728241,-0.344811975955963,0.318327158689499,-0.129058018326759,-0.097755841910839,-0.299991130828857,-1.15437078475952,-0.329637587070465,-0.70197594165802,-0.063934035599232,-0.099136419594288,-0.049669045954943,-0.254959344863892,0.309547871351242,0.255821347236633,-0.450637131929398,-0.124428018927574
seiring,-0.480187892913818,-0.549976289272308,-0.417649894952774,0.578053772449493,-0.192873314023018,0.552085876464844,-0.190541103482246,0.57576709985733,-0.305102646350861,-0.923941135406494,0.003814450232312,-0.336535543203354,-0.890071570873261,0.312272965908051,0.097025610506535,-0.393019825220108,0.437250733375549,-0.240321531891823,0.03061786107719,-0.59926187992096
meningkatkan,-0.44470489025116,-0.212176531553268,0.202972501516342,1.03794860839844,-0.029032554477453,0.24386590719223,0.19807180762291,0.020129872485995,-0.071923196315765,-0.49035769701004,0.177545562386513,-0.205924898386002,-0.410609900951386,-0.43414044380188,0.379463613033295,-0.250367820262909,0.110195398330688,-0.517439186573029,-0.427778095006943,0.245160162448883
teknologi_informasi,-0.912690699100494,-1.31312274932861,0.155650481581688,0.882773399353027,-0.094588406383991,0.509527504444122,-0.186148688197136,0.157554969191551,-1.03016865253448,-0.709675073623657,-0.208992630243301,-0.204191729426384,-0.211946591734886,-0.308378607034683,-0.025388777256012,-0.102360673248768,0.502020239830017,0.153129205107689,-0.399243146181107,0.107982471585274
kompleks,-0.048675943166018,-0.86127233505249,-0.244580179452896,0.659185826778412,-0.195454359054565,0.471011370420456,0.440432220697403,-0.229966953396797,-0.283357828855514,-0.861923754215241,0.269784182310104,-0.57258552312851,-0.549111247062683,-0.181058242917061,0.296499818563461,-0.059858594089747,-0.180557414889336,0.216268226504326,0.188068002462387,-0.632626473903656
biaya,-0.207658872008324,-0.281222015619278,-0.115107782185078,1.57377111911774,0.216742351651192,0.303325474262238,0.024524675682187,0.187156945466995,-0.441809624433518,-0.530107200145721,0.124796815216541,-0.932686448097229,-0.111970134079456,0.275159657001495,0.527246475219727,-0.485623925924301,-0.82655256986618,-0.007299627643079,-0.45790883898735,0.477279454469681
investasi,-0.755924642086029,-0.848657429218292,-0.158006459474564,1.33378314971924,0.400459408760071,0.583227932453156,-1.05749750137329,0.363088399171829,-0.895582556724548,-0.694707572460175,-0.224094450473785,-0.833054423332214,-0.14394736289978,-0.475315123796463,0.102275289595127,0.322167158126831,-0.580094993114471,0.044735934585333,0.015558000653982,0.952928125858307
bisnis,-0.44059619307518,-0.718006253242493,0.218807965517044,0.960342228412628,-0.036004971712828,0.255999088287354,-0.48959881067276,0.284859150648117,-0.498591542243957,-0.705883264541626,-0.181483373045921,-1.19995605945587,-0.377761900424957,-0.075588814914227,-0.122942879796028,0.295378774404526,0.290414452552795,0.266059249639511,-0.40349480509758,0.318998277187347
harus,-0.282192289829254,-0.742793202400208,0.063462845981121,0.869268596172333,-0.317400753498077,0.344780743122101,0.079999141395092,-0.034770496189594,-0.341991543769836,-0.255363076925278,0.313898503780365,-0.440299600362778,-0.200824201107025,0.102165907621384,-0.04686626046896,-0.191983312368393,0.308904767036438,-0.150940090417862,-0.224037945270538,0.357648700475693
sudut,0.316725432872772,-0.820456683635712,-0.165607452392578,0.776766419410706,-0.265235871076584,0.305263310670853,0.573143601417542,-0.648680567741394,0.406188666820526,-0.800620555877685,0.363789319992065,-0.861075103282928,-0.389083176851273,-1.05421924591064,-0.0145677421242,0.187357470393181,-0.133063420653343,-0.221600249409676,-0.230327993631363,0.084206789731979
investasi_teknologi_informasi,-0.538659989833832,-0.744531750679016,0.006504195742309,1.11286175251007,0.219277456402779,0.543834865093231,-0.555143654346466,0.427633553743362,-0.50168251991272,-0.467592805624008,-0.007083223201334,-1.20256900787354,0.048134692013264,-0.402222663164139,0.275952756404877,-0.187059611082077,-0.294161736965179,-0.171667188405991,-0.566119492053986,0.598967373371124
perhitungan,-0.078515142202377,-0.222433164715767,-0.130546614527702,1.09930968284607,-0.031668398529291,0.22551304101944,-0.183817848563194,0.296658903360367,0.680996716022491,-0.409141689538956,0.063122227787972,-1.14426219463348,-0.19462414085865,-0.733238816261292,0.297377109527588,-0.001275985618122,-0.845143437385559,-0.281412661075592,0.156051576137543,0.126984670758247
mudah,-0.003747149370611,-0.648097395896912,-0.199133262038231,0.629339754581451,-0.883381485939026,0.085761114954949,0.0885349214077,-0.024194778874517,0.023638885468245,-0.103217959403992,0.31607261300087,-0.587495386600494,-0.469897776842117,0.586361408233643,0.299059420824051,-0.341290712356567,0.130235135555267,0.02564924582839,-0.107556395232677,-0.084215261042118
manfaat,-0.214141204953194,-0.312211215496063,-0.139301761984825,0.968334019184112,0.177563160657883,0.519518971443176,-0.745985448360443,0.650790691375732,-0.86908894777298,-0.53855174779892,-0.347851991653442,-1.39527559280396,-0.127272114157677,-0.703759908676147,0.189979821443558,0.003581339027733,-0.479241371154785,-0.146318584680557,-0.350914150476456,0.976553857326508
tangible,-0.24157053232193,0.204376548528671,-0.153602182865143,1.62905144691467,-0.040875900536776,0.280332148075104,-0.144246563315392,0.463430196046829,-0.222373366355896,-0.976323366165161,-0.421513736248016,-1.20736420154572,-0.113620355725288,-0.856924474239349,0.036288101226091,0.12277864664793,-0.452908903360367,0.118588320910931,-0.168419554829598,0.731867849826813
intangible,0.227960988879204,-0.268215775489807,-0.240312591195106,1.29501521587372,-0.033338189125061,0.146285250782967,-0.315630197525024,0.063091851770878,-0.402237862348557,-1.42667663097382,-0.551187455654144,-1.34612679481506,-0.056758094578981,-0.645964503288269,0.04622159153223,-0.276933550834656,-0.104975804686546,0.221778973937035,-0.039432883262634,0.504477918148041
penghitungan,-0.004668974783272,-0.10973859578371,-0.311671912670135,0.74700003862381,-0.157400771975517,0.452051252126694,0.105200737714767,-0.097326889634132,-0.186120495200157,-0.152857348322868,0.300848096609116,-0.741892576217651,-0.289612710475922,-1.1118186712265,1.08939516544342,0.292010009288788,-0.755259096622467,-0.840916812419891,0.170801430940628,-0.135539472103119
aplikasi,0.024324184283614,-0.330982625484467,-0.451964259147644,0.839937150478363,-0.605760931968689,-0.138192519545555,0.060955103486776,0.442011177539825,-0.426544815301895,0.519561231136322,-0.311052680015564,-0.186889380216598,-0.601718723773956,0.159236371517181,-0.053388338536024,-0.599233090877533,-0.15900830924511,0.318428814411163,-0.714414715766907,-0.122089460492134
piranti,0.377223879098892,-0.198765799403191,0.807100892066956,1.63246393203735,-0.691643953323364,0.089152850210667,0.656859278678894,0.096255093812943,-1.16603243350983,-0.102974720299244,-0.03513003140688,-0.155420124530792,-0.228079572319984,-0.076271012425423,0.018785573542118,-0.162149384617805,-0.693033039569855,-0.181483745574951,-0.051680393517017,-0.594967424869537
tool,1.06075274944305,0.045767173171043,0.033191274851561,1.16115868091583,-0.854306876659393,-0.173005595803261,-0.15758903324604,0.147415801882744,-0.364296942949295,0.801741302013397,-0.65576583147049,-0.157105177640915,-0.402952909469605,-0.372458279132843,-0.114192984998226,-0.576210558414459,0.062218844890595,-0.706194698810577,-0.12261750549078,-0.249204337596893
pekerjaan,-0.075099669396877,-0.542895317077637,-0.17570161819458,0.456294864416122,-0.062932878732681,0.602513790130615,-0.33984237909317,-0.340485453605652,-0.756118416786194,-0.125205889344215,0.328702837228775,-0.324286073446274,-0.371965229511261,-0.22257474064827,-0.174320608377457,-0.811625421047211,0.065727576613426,-0.421378672122955,-0.57356458902359,-0.562885284423828
cukup,0.034041911363602,-0.490173012018204,-0.146549746394157,0.772665679454803,-0.321553528308868,0.010052742436528,0.308672279119492,0.246064394712448,0.271052867174149,-0.576127350330353,0.552103459835053,-0.304388105869293,-0.442883670330048,-0.092354759573937,0.481205254793167,-0.568000853061676,0.21549417078495,-0.234814867377281,0.065391980111599,0.21558403968811
daftar,-0.022331029176712,-0.283922344446182,0.71240895986557,0.651183605194092,-0.612453520298004,0.179924368858337,-1.29516839981079,0.015923781320453,-0.346908152103424,0.620142698287964,0.217324689030647,-1.07157981395721,-0.589993536472321,-0.461233973503113,-0.350378930568695,0.097387708723545,-0.345303922891617,-0.469141960144043,-0.572155237197876,0.538112580776215
elemen,0.104115977883339,-0.241875648498535,-0.562130212783814,0.41378864645958,-0.558951199054718,0.068929024040699,-0.337934345006943,-0.409324169158936,-0.408989638090134,-0.090546190738678,1.18526721000671,-0.978932023048401,0.064329080283642,-0.439241349697113,-0.496615439653397,0.505907833576202,0.646555006504059,-0.083190619945526,-0.335662811994553,0.003308182349429
value,-0.176353588700295,-0.107542514801025,-0.360156446695328,0.883233547210693,0.077534660696983,0.457347720861435,-0.437918812036514,0.762521505355835,-0.377141654491425,-0.534875214099884,-0.736917078495026,-1.59509372711182,-0.296557992696762,-1.34749090671539,-0.173907414078712,0.64506721496582,-0.203367590904236,0.438395529985428,-0.278268992900848,-0.16168823838234
hasil,0.637623727321625,-0.238838538527489,0.024350034072995,0.677493989467621,-0.570340573787689,0.4279625415802,0.185755103826523,0.460961759090424,0.292743712663651,0.394420444965363,0.072866454720497,-0.133289039134979,-0.299454748630524,-0.789417266845703,0.093650124967098,-0.490767657756805,-0.043113753199577,-0.241474002599716,-0.356213092803955,0.111804105341434
grating,0.365920573472977,0.329896450042725,-0.3095842897892,0.961602449417114,-0.558337509632111,0.020726311951876,-0.22209058701992,0.20545357465744,0.578206956386566,-0.410140216350555,0.429530024528503,-0.109561383724213,-0.707322418689728,-0.852060675621033,0.309898436069488,-0.137612774968147,0.239780351519585,-0.181012108922005,0.178314551711082,0.366029500961304
list,0.604944467544556,-0.040211159735918,0.291791617870331,0.950496137142181,-1.04002547264099,-0.033648706972599,-0.484050363302231,0.523084878921509,-0.264563500881195,0.340339481830597,0.136184334754944,-0.405340313911438,0.041950713843107,-0.81604939699173,-0.501143753528595,0.178350955247879,-0.395945876836777,-0.20493021607399,-0.452852666378021,-0.2698994576931
development,0.282969862222672,-0.645936548709869,0.583641469478607,0.983582735061646,-1.16157793998718,-0.088321670889855,0.199026420712471,0.828295230865479,-0.873513638973236,-0.191638454794884,-0.204730376601219,-0.152032062411308,0.017770502716303,-0.480034649372101,-0.947378039360046,0.276328265666962,0.079487480223179,-0.4227035343647,-0.17808310687542,-0.943645417690277
cost,0.095281690359116,0.078634366393089,-0.806076467037201,1.52006447315216,-0.141744256019592,0.099251255393028,-0.045482255518437,0.320217877626419,-0.224918782711029,-0.575011730194092,-0.301104515790939,-0.858312666416168,0.32877790927887,-0.642227351665497,-0.067763589322567,0.473113626241684,-0.407497584819794,0.104083806276321,0.201584726572037,0.480731338262558
project,0.108236111700535,-0.301173388957977,0.690264642238617,2.0924060344696,-0.221613675355911,0.193927273154259,-0.36770024895668,0.767468154430389,-0.766543984413147,-0.262414693832397,-0.438689410686493,-0.110225863754749,0.36570930480957,-0.691585659980774,-0.900343298912048,-0.481323897838593,-0.206925645470619,-0.711633920669556,0.755465090274811,-0.174327492713928
tesis,-0.033089589327574,-0.865644991397858,0.096042297780514,0.67148232460022,-0.402201056480408,-0.068255446851254,-0.09327682107687,0.351406008005142,-0.077764876186848,-0.129329234361649,-0.010418074205518,-0.464028656482697,-0.240527138113976,-0.389542400836945,-0.10942368209362,0.37645760178566,-0.376638501882553,-0.160388499498367,-0.081111907958984,-0.479700863361359
bertujuan,0.16711650788784,-0.518621623516083,-0.129828408360481,0.468135297298431,-0.537699460983276,0.013794463127852,-0.014002904295921,0.285975903272629,-0.221480995416641,-0.281518489122391,0.028406988829374,-0.050617352128029,-0.4621701836586,-0.417664617300034,0.039076674729586,-0.568616271018982,0.198003754019737,-0.16938728094101,-0.641036033630371,0.299825757741928
fitur,0.797161102294922,-0.525769472122192,-0.674423575401306,0.339875727891922,-1.05728268623352,-0.351383119821548,-0.297678053379059,0.003520684316754,0.56115072965622,-0.217476293444633,0.62538754940033,-0.058491833508015,-0.438441425561905,-0.711166739463806,-0.463266521692276,-0.330508142709732,-0.430468827486038,-0.614183843135834,-1.2285338640213,-0.380249321460724
tambahan,0.322334706783295,-0.307454854249954,-0.381401658058167,0.695408940315247,-0.76162976026535,0.039440989494324,-0.100531935691834,0.253865987062454,0.108587458729744,0.053821302950382,0.197423830628395,-0.302289605140686,-0.406905591487884,-0.447373867034912,0.110993437469006,-0.113085463643074,-0.708107471466064,-0.35460963845253,-0.093449704349041,0.423432439565659
pengguna,-0.124280884861946,0.116055816411972,-0.39037948846817,0.665348172187805,-1.01193261146545,-0.083937481045723,-0.251286804676056,0.101065084338188,-0.419942915439606,0.137392684817314,-0.228005647659302,-0.064426250755787,-1.0383083820343,-0.307954549789429,-0.105303943157196,-0.929874658584595,0.073114894330502,0.20126336812973,-0.526607871055603,0.412310689687729
kajian,-0.243035793304443,-0.813329041004181,0.193542063236237,0.805428206920624,0.196629241108894,0.379464745521545,-0.5692018866539,0.696953296661377,-0.86763596534729,-0.127846658229828,-0.405506938695908,-0.668485462665558,-0.274645298719406,-0.650439023971558,0.201544031500816,0.094761170446873,-0.05420284345746,-0.462843894958496,-0.347382098436356,0.472841411828995
ekonomis,-0.129303708672524,-0.402995645999908,-0.281933546066284,0.800835192203522,-0.00401708483696,0.314835697412491,-0.405577123165131,0.575095474720001,-0.284704387187958,-0.305737942457199,-0.412184596061707,-0.858971357345581,-0.207510024309158,-0.434881150722504,0.043180275708437,0.109711602330208,-0.11764945089817,-0.458091199398041,-0.149979934096336,0.192083775997162
pengimplementasian,0.058884855359793,-0.483261376619339,-0.156826362013817,1.25165021419525,-0.187827780842781,0.196908921003342,-0.02194151468575,0.523409307003021,-0.149313628673553,-0.263615012168884,-0.596222698688507,-0.159427955746651,0.191504999995232,-0.391739964485168,0.505187511444092,-0.376010596752167,0.076536193490028,0.226408809423447,-0.269283592700958,-0.089641623198986
electronic,-0.807675004005432,0.257311254739761,-0.580964982509613,0.676456391811371,-0.636849641799927,-0.496777683496475,-0.704703330993652,1.13063848018646,-0.566561639308929,-0.682837009429932,-0.601423740386963,-0.58824098110199,-0.330007493495941,-0.360834240913391,0.203221261501312,-0.282522946596146,0.608861804008484,-0.843186855316162,-0.300113558769226,-0.295785516500473
edi,-1.07457137107849,-0.603455483913422,-0.460329622030258,0.890523076057434,0.083297476172447,0.268541187047958,-0.075418435037136,0.587353765964508,-0.366293609142303,-0.489283680915832,-0.880395293235779,-0.969874203205108,-0.724384903907776,-0.217690885066986,0.519783198833466,-0.105952978134155,0.081124797463417,-0.815621972084045,0.392798721790314,-0.562139749526978
bidang,-0.066984049975872,-0.624980390071869,-0.470497518777847,0.635819494724274,0.190412297844887,0.483731806278229,-0.285316467285156,-0.010919081047177,-0.649998307228088,-0.573377966880798,0.179620876908302,-0.112986102700233,-0.552462995052338,-0.140295922756195,0.219410613179207,-0.011683364398778,0.555994391441345,-0.081211484968662,-0.178296431899071,-0.717856049537659
studi,-0.089402116835117,-0.394848376512527,0.050264984369278,0.620823562145233,-0.193547233939171,0.62376993894577,-0.54407811164856,0.711094677448273,-0.504816174507141,-0.165319055318832,-0.30074155330658,0.018343474715948,-0.491089314222336,-0.25442236661911,-0.247325837612152,-0.375376135110855,0.6207435131073,-0.378238886594772,-0.387862920761108,-0.543671131134033
ditjen,-0.92781412601471,-0.433711022138596,-0.589225769042969,0.940163373947144,-0.20276215672493,0.928427994251251,-0.573998868465424,-0.111910969018936,-1.08368349075317,0.904128193855285,0.072220347821713,-0.10322654992342,-0.068696655333042,-0.439459711313248,-0.312259048223495,-0.247282564640045,0.162057131528854,-0.02204180136323,-0.771557450294495,0.275065362453461
bea,-0.87801069021225,-0.728646397590637,-0.536855340003967,1.29097473621368,0.123538970947266,1.37307071685791,-0.810853838920593,0.238148078322411,-1.0198769569397,0.691990613937378,-0.468260586261749,-0.197821244597435,0.158169999718666,-0.42630073428154,-0.111830078065395,-0.685775220394135,0.514079332351685,-0.649049818515778,-0.865159034729004,-0.431047558784485
cukai,-0.60029000043869,-0.870335817337036,-0.663235783576965,1.16029131412506,0.243447959423065,1.5255868434906,-0.976713478565216,0.147906109690666,-0.604206681251526,0.685543894767761,-0.4012830555439,-0.202826112508774,0.174780130386353,-0.33989092707634,0.061544466763735,-0.581342339515686,0.714755833148956,-0.551365613937378,-0.836536169052124,-0.213542237877846
direktorat,-0.619180381298065,-0.8465735912323,-0.328637272119522,1.19366860389709,0.355750113725662,0.941325843334198,-1.02328622341156,-0.198482051491737,-0.686921179294586,0.540172100067139,-0.528548896312714,0.228828430175781,0.000521799782291,-0.702512621879578,-0.252766251564026,-0.753963708877564,0.56510317325592,-0.683802783489227,-0.834261894226074,-0.268949687480927
jenderal,-0.896466493606567,-0.957397401332855,-0.655523896217346,1.03392946720123,0.303084164857864,1.09716081619263,-0.992445170879364,-0.059050854295492,-1.03279757499695,0.868331670761108,-0.689468741416931,-0.091740287840366,-0.045376405119896,-0.669193863868713,-0.103153795003891,-0.678130626678467,0.544227421283722,-0.623946368694305,-0.96799647808075,-0.241896361112595
djbc,-0.63526052236557,-0.766892075538635,0.036246724426746,1.30381906032562,0.024286717176437,0.989633202552795,-0.548836648464203,0.072229109704495,-0.583134531974793,0.706062912940979,-0.095862381160259,-0.087601557374001,0.538192629814148,-0.397579908370972,0.052847731858492,-0.535868585109711,0.735132396221161,-0.573265552520752,-0.516731560230255,-0.034833285957575
instansi,-1.14492213726044,-0.537468731403351,0.019169747829437,0.695193886756897,-0.257979184389114,0.483005613088608,-0.756212770938873,0.444116085767746,-0.572401762008667,0.07755833864212,0.669682204723358,0.045460574328899,-0.180642619729042,-0.561099767684937,0.217821836471558,-1.23458445072174,0.031731832772493,-0.08233779668808,-0.770283102989197,-0.04364924877882
pemerintah,-1.31155073642731,-0.35186105966568,0.043422203511,0.601092755794525,-0.493111371994019,0.257332980632782,-0.702549934387207,0.577192306518555,-0.780037105083466,-0.124917536973953,1.00731933116913,0.040965728461742,0.021450081840158,-0.676797688007355,0.563803315162659,-0.767711758613586,0.389560669660568,0.072430394589901,-0.58176189661026,-0.107791587710381
fungsi,-0.392813146114349,-0.924486458301544,-0.548969626426697,0.766368389129639,0.150334000587463,0.191924452781677,-0.468825876712799,-0.065966635942459,-0.347907036542892,0.154660150408745,0.163353249430656,-0.471635848283768,0.088936559855938,0.068219088017941,-0.227085739374161,-0.379380106925964,0.169343158602715,-0.2874955534935,-0.621728479862213,-0.185370877385139
tugas,-0.335180431604385,-0.796032786369324,-0.608456909656525,0.563851654529572,-0.01938452757895,0.293990641832352,-0.458910465240479,-0.621070921421051,-0.338513523340225,0.654345691204071,0.289416879415512,-7.32545158825815E-05,-0.49921452999115,-0.101841390132904,0.042494602501392,-0.644123196601868,-0.058333408087492,-0.481726080179215,-0.392238348722458,-0.444691509008408
kontrol,-0.429803341627121,-0.838147222995758,0.456846684217453,0.749529123306274,-1.25020253658295,1.21034932136536,-0.400851249694824,-0.284896910190582,-0.262651473283768,0.194164782762527,-0.319509714841843,-0.958022773265839,0.264401376247406,-0.018340058624745,0.019801110029221,-0.41174703836441,-0.175300061702728,-0.634193420410156,-0.305020213127136,0.692882478237152
pengawalan,-1.1048698425293,-0.590659856796265,-0.198896765708923,1.1429398059845,0.224555730819702,1.04610323905945,0.280558794736862,-0.409306526184082,-0.808320820331574,-0.113161832094192,0.724106669425964,0.026776243001223,-0.171706274151802,-0.253326833248138,0.338412970304489,-0.340553492307663,-0.087481439113617,-0.351115643978119,-0.73387598991394,-0.358547896146774
lintas,-0.511307418346405,-0.303068310022354,-0.584991276264191,0.372341483831406,-0.698110818862915,-0.17826783657074,0.491378098726273,-0.148501664400101,-0.011257914826274,0.246416062116623,0.487595558166504,-0.619813799858093,-0.178861498832703,-0.155056029558182,1.28472566604614,-0.779717147350311,0.218321055173874,-0.255703330039978,-0.523625552654266,-1.39859366416931
barang,-0.797892093658447,0.281952053308487,0.085991702973843,1.07882809638977,-0.32083535194397,0.409538090229034,-0.623636901378632,0.032507002353668,-0.682114005088806,-0.264886021614075,0.186600431799889,-0.451222658157349,-0.704267084598541,0.285581320524216,0.791197121143341,0.02027678117156,-0.103226572275162,-0.16255895793438,-1.55332481861115,-0.731046259403229
impor,-0.669364988803864,-0.287692725658417,-0.474588662385941,0.797693490982056,0.26468026638031,0.637161910533905,-0.643528640270233,0.219447523355484,-0.280546009540558,-0.28762474656105,0.376807808876038,-0.332973718643188,-0.162651583552361,-0.117774739861488,0.477730751037598,-0.103186383843422,0.066612161695957,-0.403501510620117,-0.545783281326294,-0.470224440097809
ekspor,-0.648235857486725,-0.18119914829731,-0.101754032075405,0.893302977085114,0.010776219889522,0.449701100587845,-0.344009637832642,0.189725637435913,-0.122749656438828,-0.489315718412399,0.290833503007889,-0.389362573623657,-0.316160142421722,-0.049519762396813,0.450613915920258,-0.042057227343321,0.009448079392314,-0.349540531635284,-0.681219577789307,-0.457117736339569
indonesia,0.10398293286562,-0.172188341617584,-0.118656568229198,0.377244859933853,-0.259475827217102,0.220349997282028,-0.440323293209076,0.935030162334442,-0.38734495639801,-0.343013435602188,0.343993127346039,-0.213158175349236,-0.770972013473511,-0.060943655669689,0.557291448116303,-0.431093215942383,0.538555800914764,-0.583012521266937,0.023552607744932,-0.34455943107605
globalisasi,-0.336576640605927,-0.823208093643189,-0.197565376758575,1.00519251823425,0.123068392276764,0.483224898576736,-0.091787979006767,0.329522430896759,-0.762916564941406,-1.22338950634003,-0.133281871676445,-0.353990346193314,-0.654006540775299,0.091583825647831,0.134944945573807,-0.214566245675087,1.06361961364746,-0.169436737895012,-0.021175898611546,-0.32269287109375
pelayanan,-1.18552851676941,-0.536985754966736,-0.745620787143707,0.9670490026474,-0.305610150098801,0.361538857221603,-0.042780786752701,0.144008293747902,-0.743217706680298,-0.350519180297852,0.800647079944611,-0.08822525292635,0.040191438049078,0.01684663631022,-0.162767678499222,-0.400630742311478,0.648148894309998,0.274189233779907,-1.05515825748444,0.217656031250954
baik,-0.041165482252836,-0.692306339740753,-0.066139668226242,0.990723311901092,-0.088983207941055,0.070537254214287,0.241837814450264,0.003721113316715,0.344452679157257,-0.052733544260264,0.521739542484283,-0.070693522691727,-0.399019122123718,-0.203333601355553,0.286706984043121,-0.46351283788681,0.168395295739174,-0.236484959721565,-0.055413335561752,0.216007396578789
cepat,-0.245031923055649,-0.948902666568756,-0.228588283061981,0.865207254886627,-0.206817105412483,0.544969201087952,0.043819203972817,-0.051376417279244,0.241195097565651,-0.295898050069809,0.399645239114761,-0.192757830023766,-0.827966451644897,0.383631676435471,0.247153803706169,-0.214192092418671,0.205343425273895,0.27184522151947,-0.16778464615345,-0.203432410955429
efisien,-0.641151487827301,-0.99451071023941,-0.070038989186287,1.223761677742,-0.012734458781779,-0.142692744731903,0.079490594565868,-0.105086490511894,-0.006756325252354,-0.207663312554359,0.748082458972931,-0.225681439042091,-0.001673444407061,0.277384102344513,0.642920851707459,-0.066662669181824,-0.017891457304359,-0.075952708721161,-0.568186938762665,-0.064301066100597
industri,-0.402916520833969,-0.186823979020119,0.21358859539032,1.18471419811249,-0.054850928485394,0.405215412378311,-0.342179715633392,0.425388395786285,-0.642222464084625,-1.15414178371429,-0.079087123274803,-0.6245978474617,-0.137388929724693,0.102131061255932,0.469054102897644,0.227811932563782,0.300359427928925,-0.14290976524353,-0.411661863327026,-0.471860885620117
masyarakat,-1.11183834075928,-0.10501716285944,-0.444842576980591,0.473483502864838,-0.306805580854416,0.178627073764801,-0.28612020611763,0.515331029891968,-0.566511332988739,-0.260537922382355,0.665856659412384,-0.288998663425446,-0.829740703105927,-0.299858301877975,0.40749603509903,-0.900868654251099,0.471549898386002,0.077181540429592,-0.446425855159759,0.058900725096464
usaha,-0.33406138420105,-0.344845026731491,0.266752690076828,1.12371218204498,-0.210309281945229,-0.247308596968651,-0.302787959575653,0.35025754570961,-0.880904257297516,-0.985512971878052,0.015062903054059,-0.502206087112427,0.281886845827103,0.073670737445355,0.764520704746246,-0.050090055912733,0.376707941293716,-0.355621933937073,-0.65004026889801,-0.432271957397461
april,-0.026331005617976,0.374387174844742,-0.513891756534576,0.510570764541626,-0.472083628177643,0.309957563877106,-0.543870270252228,0.229143738746643,-0.19353149831295,-0.278554141521454,0.319079786539078,-0.327307671308517,-0.790489375591278,-0.475050717592239,0.421658545732498,-0.476564437150955,0.371742397546768,0.108368381857872,-0.339958846569061,-0.014712427742779
pengukuran,-0.113333962857723,-0.641568541526794,0.484570264816284,1.15059876441956,-0.039226826280356,0.658302783966064,0.205601558089256,-0.033522758632898,0.155044049024582,-0.164818093180656,-0.16797848045826,-0.001412658835761,-0.15359465777874,-1.23012006282806,-0.003462647087872,-0.135186418890953,0.821530044078827,-0.550628542900085,-0.048488147556782,0.353058040142059
ekonomi,-0.432416498661041,-0.088288545608521,-0.537980258464813,0.94975483417511,0.667522311210632,0.216837093234062,-0.937418520450592,0.573377132415772,-0.754754722118378,-0.654880583286285,0.240239933133125,-1.15215575695038,-0.595647811889648,-0.447994589805603,0.053615361452103,-0.260296791791916,0.099318668246269,0.036644425243139,0.098194271326065,0.394962400197983
implementasi,0.159458711743355,-1.0040807723999,0.021100239828229,0.761211752891541,0.003447116352618,-0.108435727655888,-0.092073000967503,0.934259474277496,-0.028433464467526,-0.002855759114027,-0.217189967632294,-0.255053132772446,0.037014607340098,-0.372630447149277,0.43275797367096,-0.626733660697937,-0.121273010969162,-0.437859207391739,-0.231750294566154,-0.12890625
kepabeanan,-0.500244379043579,-0.741642475128174,-0.326672166585922,0.945945143699646,0.199445530772209,1.16699945926666,-0.607547760009766,0.146796062588692,-0.513466715812683,0.255581051111221,-0.058905996382237,-0.299351572990417,0.201324015855789,-0.290646374225616,0.004151382017881,-0.390293270349503,0.481493502855301,-0.471892654895783,-0.525556147098541,-0.222363874316216
economics,-0.194949239492416,-0.023228107020259,-0.485440015792847,1.11548709869385,0.028319133445621,0.545151114463806,-0.869844019412994,0.710455119609833,-0.396718829870224,-0.841777563095093,-0.244585961103439,-1.63548731803894,0.072847299277783,-1.19949114322662,-0.052194807678461,0.300242006778717,-0.645518898963928,-0.069253735244274,-0.018953498452902,0.320076435804367
dievaluasi,0.411570340394974,-0.388795047998428,-0.198919147253037,0.885421395301819,-0.390902280807495,-0.279997557401657,-0.29277303814888,0.818566918373108,-0.045216642320156,0.619329333305359,0.319809287786484,-0.246872782707214,-0.529279112815857,-0.440692842006683,-0.008000989444554,-0.103398457169533,-0.300637930631638,-0.188428118824959,-0.379960417747498,0.715883374214172
financial,0.130563169717789,0.041003204882145,-0.912350535392761,0.917584121227264,-0.217496737837791,0.212948560714722,-0.618439972400665,0.503306686878204,-0.696575701236725,-0.804134428501129,-0.318568736314774,-0.562506318092346,0.259571045637131,-0.406638145446777,0.050985977053642,0.158150732517242,0.635079741477966,-0.232940033078194,-0.13637912273407,0.080448865890503
roi,-0.230684176087379,-0.326475918292999,-0.222544521093369,1.24734938144684,0.135596185922623,0.36932036280632,-0.398834347724915,0.51510500907898,-0.257555991411209,-0.788810789585114,-0.274457365274429,-1.0603187084198,0.16882249712944,-0.881274700164795,0.287909328937531,0.229800641536713,-0.455725312232971,-0.210058704018593,-0.17317333817482,0.339529275894165
net,-0.251695841550827,0.0583825558424,-0.804581820964813,1.14785361289978,-0.337789297103882,-0.088280007243157,-0.229903414845467,0.949556112289429,0.369016289710999,0.007359904237092,-0.378612250089645,-0.048637840896845,0.196657821536064,-1.00001192092896,0.045041531324387,-0.31507009267807,-0.319188117980957,-0.11752413213253,-0.010628828778863,0.220534667372704
non,0.089492246508598,-0.29626402258873,-0.506475329399109,0.778913974761963,0.047724548727274,0.248914673924446,-0.083648145198822,0.518799781799316,-0.282606869935989,0.117261186242104,0.737444579601288,-0.177604481577873,0.185762763023376,-0.34167417883873,0.25859522819519,-0.246291279792786,0.717450797557831,-0.125815480947495,-0.237211257219315,-0.262737691402435
penilaian,-0.067971624433994,-0.223564743995666,0.765247881412506,0.847297608852387,-0.511002898216248,0.650924384593964,-0.085317090153694,0.217602029442787,-0.268159180879593,-0.035865284502506,0.157624155282974,-0.373329609632492,-0.014842611737549,-0.884806752204895,0.255858987569809,-0.002339764265344,0.575421929359436,-0.812104165554047,-0.242489606142044,0.531899571418762
domain,0.364667385816574,-0.502296090126038,0.081165030598641,0.394844979047775,-0.856975197792053,0.185295850038528,-0.087188772857189,0.371263355016708,-0.518772423267365,-0.32070055603981,0.672825932502747,-0.090217411518097,-0.22288890182972,-0.908601880073547,-0.55761581659317,0.617758750915527,0.261029213666916,-0.56982684135437,-0.195183366537094,-0.06169417873025
gambaran,0.404272735118866,-0.886754989624023,0.224311009049416,0.891781151294708,0.079410925507546,-0.223605260252953,-0.459933757781982,0.290814280509949,-0.177771225571632,-0.626626372337341,0.314664214849472,-0.030526014044881,0.030690453946591,-0.884139776229858,0.299913495779037,-0.323141902685165,0.36853837966919,-0.041210789233446,-0.655219852924347,0.184002578258514
tidak,0.070342876017094,-0.236530289053917,-0.552427649497986,0.890784800052643,-0.295567005872726,0.206025794148445,0.288619667291641,-0.020588390529156,-0.174627840518951,-0.47919824719429,0.38211789727211,-0.339537650346756,-0.255403518676758,0.005007087253034,0.041252616792917,-0.632635772228241,-0.115372002124786,-0.167312651872635,-0.154018610715866,0.385526984930038
benefit,0.240037247538567,0.093034811317921,-0.760572552680969,1.3651602268219,-0.429680526256561,0.002003108151257,-0.234690800309181,0.638878703117371,-0.390495955944061,-0.557141900062561,-0.967853367328644,-0.999970078468323,0.07425194978714,-0.998737215995789,0.210304200649261,-0.023920960724354,-0.559197664260864,0.200790658593178,0.31202045083046,0.472355276346207
analysis,0.53814709186554,-0.161800220608711,-0.279438138008118,0.897166252136231,-0.192084774374962,-0.035860914736986,-0.076607033610344,0.531702518463135,0.136785313487053,0.386431366205215,-0.055249758064747,-0.677287817001343,-0.132167384028435,-1.14779412746429,-0.536328196525574,0.342519253492355,0.141962647438049,0.200481966137886,-0.108130149543285,-0.820860683917999
tetapi,0.024956032633782,-0.567968547344208,-0.099934637546539,0.94740641117096,0.002412193221971,-0.047916695475578,0.399211436510086,0.038870383054018,-0.145886197686195,-0.453985512256622,0.413815796375275,-0.457741558551788,-0.322092801332474,-0.105702124536037,0.154945507645607,-0.549956738948822,0.173591643571854,-0.179249092936516,0.010008377954364,0.114601969718933
analisis_dampak,-0.00393794151023,-0.741724014282227,0.262504518032074,1.09931337833405,-0.417991787195206,1.09892642498016,-0.62439227104187,0.223033264279366,-0.151230037212372,-0.561735332012177,0.229615703225136,-1.34380209445953,0.357578843832016,-0.309538394212723,-0.47057631611824,-0.028719043359161,-0.30677917599678,0.080371759831905,-0.507789552211762,0.659658312797546
akurasi,-0.048972848802805,-0.467690736055374,-0.965307533740997,1.18173897266388,-0.891307473182678,0.11948573589325,-0.132188454270363,-0.159401163458824,0.967206656932831,-0.344316005706787,1.0634777545929,0.117650866508484,-0.120264358818531,-0.914685249328613,0.825107574462891,0.174779385328293,-0.641787171363831,-0.478705197572708,0.233000889420509,0.089269101619721
kinerja,-0.186464950442314,-0.602990508079529,-0.090789459645748,1.04322683811188,0.463059842586517,0.190543904900551,0.18542917072773,-0.227834492921829,0.12380051612854,-0.036162033677101,-0.107091754674912,-0.206590637564659,-0.116858713328838,-0.90311723947525,0.412336260080337,-0.538045942783356,0.23665089905262,-0.185461923480034,-0.840400516986847,-0.109643064439297
pegawai,-0.113171681761742,-0.202016577124596,-0.494629561901093,1.04870581626892,-0.600233793258667,1.12542104721069,-0.083290308713913,-0.66501921415329,-0.670722544193268,-0.431808948516846,0.430588394403458,0.181394919753075,0.458776354789734,-0.660786926746368,-0.146479025483131,-1.69659733772278,0.311404466629028,0.366384506225586,-0.222721919417381,0.095980994403362
korporat,-0.315213352441788,-0.767624735832214,0.759835302829742,1.07738471031189,-0.378083646297455,0.95926421880722,-0.43795371055603,-0.005367532838136,-0.228814378380775,-0.167722448706627,0.173123300075531,-0.898412823677063,0.152656063437462,-0.314195960760117,-0.333916038274765,0.061709355562925,0.4039086997509,0.021452391520143,-0.442357838153839,-0.044029448181391
skor,-0.05391088873148,-0.231028005480766,-0.353842049837112,1.0875016450882,-0.301386833190918,-0.208766579627991,-0.129307091236115,0.25139969587326,0.482851088047028,-0.051220335066319,0.533589243888855,-0.188200443983078,-0.162296131253243,-1.34423005580902,0.123525530099869,-0.217364683747292,-0.256093412637711,-0.953131675720215,0.360172718763351,0.834710836410522
angka,-0.301742196083069,0.024666916579008,0.017898268997669,1.139728307724,0.10785773396492,0.207985237240791,-0.028277246281505,-0.018322316929698,0.419705152511597,-1.03891336917877,0.398773312568665,-0.274888634681702,-0.357638329267502,-0.566469788551331,0.243253275752068,-0.172020390629768,0.41340708732605,-0.559359312057495,-0.148175641894341,0.002980212680995
penyempurnaan,0.229520201683044,-0.733104169368744,0.536272943019867,0.955829799175262,-0.384520500898361,-0.081929281353951,-0.390317559242249,0.037370834499598,-0.276089310646057,0.00417549489066,0.140609174966812,-0.402937203645706,-0.243900030851364,-0.607821822166443,-0.234370306134224,0.009315610863268,0.165390431880951,-0.101263500750065,-0.400924861431122,0.725426614284515
rancangan,0.084535717964172,-1.15292501449585,0.363569319248199,0.891917765140533,-0.93533182144165,0.256110519170761,-0.29609489440918,0.11061817407608,-0.339102834463119,0.599246799945831,0.344502359628677,-0.254219114780426,0.133969008922577,0.294464260339737,-0.388114929199219,-0.277176022529602,0.193605810403824,0.102216795086861,-0.580879271030426,0.132195681333542
warehouse,0.007150198332965,-0.588807702064514,0.00299728824757,2.19959759712219,0.27831819653511,0.837007105350494,-0.794003784656525,0.762596666812897,0.310039967298508,0.171502754092217,-0.066062077879906,0.755165874958038,0.048472039401531,-0.127118796110153,0.014917182736099,0.496852338314056,0.11418117582798,0.205448165535927,-0.597142398357391,-0.34231173992157
laporan,-0.057033181190491,-0.363765239715576,-0.013241976499558,1.18877995014191,0.057398922741413,0.694289684295654,-0.637762606143951,0.199862346053124,-0.191773384809494,0.096372246742249,0.565766513347626,-0.053692400455475,-0.286683142185211,0.216047063469887,0.113217659294605,-0.178392127156258,-0.254509121179581,0.028825910761952,-1.11123192310333,-0.242036312818527
multi,0.027260303497315,-1.24013209342957,-0.542996346950531,0.585924088954926,-0.134157672524452,-0.191246435046196,-0.238171920180321,0.211231037974358,0.55433976650238,-0.276022911071777,0.130612745881081,-0.354616075754166,-0.526483416557312,-1.06429016590118,-0.333783030509949,0.248185828328133,-0.212160930037498,-0.16631244122982,0.303457736968994,-0.898358881473541
sesuai,-0.066157631576061,-0.7271688580513,0.261181622743607,0.884722948074341,-0.671028017997742,0.421899527311325,-0.02132030390203,0.103738561272621,-0.37108501791954,-0.103904210031033,0.378871262073517,-0.282705307006836,-0.130637779831886,0.040975537151098,-0.595915675163269,-0.347261488437653,-0.169139191508293,0.110299311578274,-0.468583196401596,0.26629900932312
user,0.451259464025497,0.040581211447716,-0.619143009185791,1.22427105903625,-0.624918103218079,-0.180734127759934,0.076670333743095,0.558957636356354,-0.456991165876389,0.422323048114777,-0.29551562666893,0.192474514245987,-0.877467036247253,-0.279398292303085,-0.762904822826386,-0.316143870353699,-0.002578144427389,-0.274242073297501,0.298470228910446,0.191323548555374
bank,-0.225879400968552,-0.466620862483978,-0.017596894875169,1.23622870445251,-0.918615639209747,0.861492455005646,-0.749792993068695,0.880265593528748,0.009925407357514,-1.05040788650513,-0.661183595657349,0.100671537220478,0.243590086698532,0.323839664459229,0.440121412277222,-0.514564156532288,0.154121950268745,-0.144700184464455,-0.157245889306068,0.225839465856552
xyz,-0.305105149745941,-0.523764073848724,0.56517744064331,1.32666945457459,-0.72331029176712,0.671962678432465,-0.302851676940918,0.240214541554451,-0.302352130413055,-0.757314622402191,-0.689096689224243,0.043269868940115,-0.275362193584442,0.021628385409713,-0.178888157010078,0.051918998360634,0.284902721643448,-0.127422824501991,-0.453598827123642,0.062294773757458
sejalan,-0.858685195446014,-0.831714034080505,0.003106158459559,0.882479965686798,0.035901971161366,0.184837520122528,0.223340213298798,0.422638922929764,-0.847707390785217,-0.597324848175049,0.425710052251816,-0.286624938249588,-0.525566101074219,-0.222453773021698,0.067852385342121,-0.610378861427307,0.307027101516724,0.266138404607773,-0.337739795446396,0.098810687661171
penyesuaian,-0.084023766219616,-0.876063883304596,0.287991225719452,0.73842316865921,-0.685934484004974,0.382358402013779,-0.439541935920715,0.19463537633419,-0.029494538903236,-0.099969923496246,0.266797214746475,-0.575122177600861,0.139282450079918,0.449957937002182,0.115776687860489,-0.264086127281189,-0.324643760919571,-0.510954022407532,-0.260761886835098,-0.339074701070785
manual,0.447428017854691,-0.646419525146484,0.077509231865406,0.701477110385895,-0.343740999698639,1.05477571487427,0.140467286109924,-0.203313440084457,-0.022208290174604,-0.157992899417877,0.893897116184235,-0.09452547878027,-0.574477195739746,-0.174543455243111,0.640346229076386,-0.136317536234856,-0.38514968752861,-0.253113150596619,-0.361700147390366,-0.036683719605208
bantuan,0.525182485580444,0.519407987594605,-0.013172002509236,1.12875533103943,-0.632327795028687,0.374797224998474,0.338000148534775,0.192741647362709,-0.471577554941177,0.358131945133209,0.054118040949106,-0.248491778969765,-0.217869654297829,-0.449629217386246,0.66501396894455,-0.662776231765747,-0.082420848309994,0.070992857217789,-0.425182640552521,-0.53281557559967
pelaporan,-0.087854765355587,-0.07966747879982,-0.057793233543635,1.28700649738312,-0.213866040110588,1.16454899311066,-0.917130470275879,0.102509513497353,0.003310824744403,0.023722272366285,0.179177433252335,0.080089263617992,-0.125119611620903,0.300913065671921,0.145685791969299,-0.603302240371704,0.129144266247749,-0.102689146995544,-1.47940063476563,-0.408401191234589
manajemen,0.046677000820637,-0.724348247051239,0.604466736316681,1.05411779880524,-0.299564242362976,0.984261035919189,-0.257826387882233,0.181815564632416,-0.372801780700684,-0.081350035965443,0.063299335539341,-0.53393542766571,0.06276547908783,-0.071986056864262,-0.204089641571045,-0.570166051387787,0.513582348823547,-0.312159240245819,-0.146063283085823,0.289174944162369
kondisi,-0.515734612941742,-0.78632116317749,0.221910163760185,0.696133434772491,-0.439315885305405,0.570275545120239,0.183542266488075,0.047769282013178,-0.035102847963572,-0.155477374792099,0.206446796655655,-0.331638008356094,0.011252901516855,-0.581387579441071,-0.013742784038186,-0.269735932350159,-0.007644761353731,0.23433929681778,-0.658948600292206,0.08596333861351
pengkajian,-0.360543549060822,-0.672439157962799,-0.074635453522205,1.21564328670502,0.096133872866631,0.536303341388702,-0.39888072013855,0.477788507938385,-0.774623036384583,0.123078554868698,-0.236203864216804,-0.242358237504959,0.504154801368713,-0.283593952655792,0.348688095808029,-0.061550527811051,-0.002133783884346,-0.350985139608383,-0.245351001620293,-0.033717378973961
systemc,0.452592045068741,-0.418155372142792,-0.673908174037933,0.809737026691437,-0.498766779899597,-0.1259526014328,-0.465401619672775,0.850175380706787,-0.710157930850983,0.091302111744881,-0.268924415111542,-0.743585109710693,0.390724986791611,-0.239129334688187,-0.684639930725098,-0.409765899181366,-0.087011389434338,-0.07025633007288,-0.309727311134338,0.031745653599501
data_warehouse,0.173191875219345,-1.16480779647827,-0.09151491522789,1.71924543380737,-0.268895477056503,0.683561980724335,-1.18636345863342,0.216033160686493,0.33723658323288,0.174347758293152,-0.275610953569412,0.338506191968918,-0.189024314284325,0.223235443234444,0.259531199932098,0.19086343050003,-0.121406346559525,1.36841261386871,-1.02193892002106,-0.422718495130539
perancangan,-0.044442836195231,-1.16995072364807,-0.01597898080945,0.871262311935425,-0.794861972332001,0.686507046222687,-0.638654947280884,0.519409656524658,-0.341348141431809,0.212649390101433,-0.045109786093235,-0.085272960364819,0.078029833734036,0.339890658855438,-0.688477098941803,0.210700288414955,0.459020674228668,0.186363190412521,-0.649260222911835,-0.31277933716774
lama,-0.037801504135132,-0.560416042804718,-0.359845221042633,1.13639259338379,-0.003552598645911,0.397114306688309,0.563731849193573,-0.26692208647728,0.070616409182549,-0.385274291038513,0.053448662161827,-0.207274809479713,-0.597130537033081,0.116475269198418,0.601130068302155,-0.250396072864532,-0.139832988381386,5.50494660274126E-05,-0.405492067337036,-0.31673988699913
khusus,0.006840313784778,-0.612384974956512,-0.023509049788118,0.504721820354462,-0.421632021665573,0.172371834516525,0.027590418234468,-0.017395177856088,-0.606189012527466,-0.516466736793518,0.408462673425674,-0.117141075432301,-0.395371556282043,0.040522422641516,0.166758641600609,-0.190356999635696,0.147252202033997,-0.532900512218475,-0.448536038398743,-0.428720831871033
database,-0.204506948590279,-0.640987932682037,-0.774663805961609,0.812590897083283,-0.172304898500443,0.562935352325439,-0.481176614761353,0.504717707633972,-0.04392159357667,0.286729276180267,0.486198365688324,-0.230426833033562,-0.157770112156868,0.153577551245689,-0.232695296406746,-0.21359184384346,-0.328300893306732,0.506662547588348,-0.008682323619723,-0.475920170545578
berbasis,0.171319678425789,-0.638774693012237,-0.511862337589264,0.985549330711365,-0.449000626802444,-0.332291811704636,0.000610085669905,0.789221286773681,-0.205133527517319,0.360827833414078,0.091772623360157,-0.194307401776314,-1.04291915893555,0.540153622627258,0.225021466612816,0.322555273771286,0.308662295341492,-0.773132741451263,0.64509379863739,-0.679558396339417
oracle,-0.264841139316559,-0.796262562274933,0.528307318687439,1.2395886182785,-0.380843460559845,0.45422551035881,-0.389613747596741,0.943376302719116,-0.211298391222954,-0.089721590280533,-0.279178738594055,-0.404412001371384,0.056825574487448,-0.335571259260178,0.125875905156136,0.404648095369339,-0.521821141242981,0.0052555273287,-0.545322895050049,0.05088235065341
sistem_operasi,-0.238803774118423,-1.11195468902588,-0.205604016780853,0.839955389499664,-0.761921346187592,-0.040676888078451,0.043925803154707,0.165727913379669,0.080603443086147,0.623959124088287,0.11374419927597,-0.484633415937424,-0.326070010662079,0.321184515953064,0.247820451855659,-0.19042219221592,-0.600629210472107,-0.551435530185699,0.138280987739563,-0.690151154994965
proses,0.338114351034164,-0.694408059120178,0.218307256698608,1.12718605995178,-0.136018827557564,0.483976691961288,0.203981250524521,-0.336998254060745,0.024590812623501,-0.219451189041138,0.222827360033989,0.117558248341084,-0.121412396430969,-0.588775098323822,-0.541682124137878,-0.115185186266899,0.041273150593042,-0.648635864257813,-0.481844007968903,-0.105113059282303
perangkat,-0.566818952560425,-0.799103081226349,0.307131856679916,0.953592360019684,-0.574410498142242,0.212349474430084,0.025654390454292,-0.00225391658023,-0.508875787258148,0.259011417627335,-0.502194344997406,-0.061312694102526,-1.08507192134857,0.334626257419586,-0.269759744405746,-0.72962087392807,-0.638349652290344,-0.758273065090179,0.301402986049652,-0.82657915353775
lunak,0.219171896576881,0.048850625753403,0.802319824695587,1.76330494880676,-0.469643145799637,0.377835184335709,0.366679728031158,0.048634119331837,-1.38068544864655,0.184021934866905,-0.484887182712555,0.187816008925438,-0.619973480701447,0.016184389591217,-0.000294019497233,-0.273692488670349,-0.502451419830322,-0.666689395904541,0.183532685041428,-0.82111120223999
cmm,0.286091834306717,-0.434776932001114,0.776084363460541,1.57633173465729,-0.718682885169983,0.142519727349281,0.10427587479353,-0.151491925120354,-0.483711987733841,-0.016486248001456,0.149093106389046,0.094779811799526,0.351301431655884,-0.90564101934433,-0.39053213596344,0.43068864941597,0.540139555931091,-0.7815061211586,-0.033000584691763,-0.19785737991333
based,0.610572755336762,0.403513878583908,-0.463941693305969,1.09183859825134,-0.540485084056854,-0.171739503741264,0.037825763225556,0.642827987670898,-0.161882266402245,0.015134573914111,-0.155526220798492,-0.255537450313568,-0.314502388238907,-0.311111718416214,0.58049726486206,0.330975413322449,0.041283626109362,-0.368679314851761,-0.061557773500681,-1.02316057682037
appraisal,0.354449570178986,0.372330039739609,0.825115323066711,1.26768040657043,-1.20394277572632,-0.413983017206192,-0.166328921914101,0.039225045591593,-0.538273811340332,-0.013075671158731,-0.392743319272995,-0.680025398731232,-0.200162798166275,-1.19470155239105,-0.5744908452034,0.193070590496063,0.043280739337206,-0.925017237663269,-0.236714139580727,-0.213430821895599
for,0.515091896057129,-0.59968227148056,0.065172143280506,0.993947148323059,-0.576907873153687,-0.420636236667633,-0.108881756663322,0.208576828241348,-0.573912799358368,-0.15280556678772,-0.052468832582235,0.022440019994974,0.184064269065857,-0.79673558473587,-0.881004333496094,-0.027401428669691,0.530102968215942,-0.986283242702484,0.440251022577286,-1.01118230819702
internal,-0.069630667567253,-0.441340774297714,0.117279440164566,0.801090717315674,-0.408807843923569,0.825815796852112,0.111897677183151,-0.469580054283142,-0.515626788139343,0.37431338429451,-0.349273592233658,-0.970619738101959,0.065129801630974,-0.488134652376175,-0.048442926257849,-0.413044184446335,0.448282361030579,0.565778374671936,-0.579742968082428,-0.15127620100975
process,0.201971277594566,-0.200249508023262,0.768457293510437,1.71269035339355,-0.591765403747559,-0.072881743311882,-0.172630786895752,-0.025186819955707,-0.278327405452728,0.044441282749176,-0.625087261199951,-0.248983278870583,0.654509782791138,-0.895811259746552,-0.250135838985443,0.202114954590797,0.587359666824341,-0.523346185684204,-0.076591700315476,-0.563790798187256
improvement,0.264348804950714,-0.43585667014122,0.830398619174957,1.70564544200897,-0.697360694408417,-0.053379479795694,-0.095176100730896,0.168156981468201,-0.332901537418365,-0.086450979113579,-0.292563289403915,-0.269853621721268,0.506908237934112,-1.02127969264984,-0.6410271525383,0.34856966137886,0.17721351981163,-0.795675218105316,0.07805310934782,-0.388301253318787
organisasi,-0.31414532661438,-0.931112766265869,0.240968748927116,0.914774954319,-0.290568292140961,0.427807420492172,-0.185011312365532,0.003589087165892,-0.600351393222809,-0.579479098320007,0.137682572007179,-0.52627956867218,0.379624843597412,-0.499129414558411,-0.234483942389488,-0.652701497077942,0.634433209896088,0.206638500094414,-0.170286938548088,0.331009566783905
perangkat_lunak,0.189141139388084,0.140391498804092,0.523088037967682,1.52534353733063,-0.831169784069061,0.137504816055298,0.838346719741821,-0.219178333878517,-0.879312336444855,-0.008200376294553,0.310902774333954,-0.304903656244278,-0.197469592094421,0.251330226659775,0.026534508913756,-0.146909460425377,-0.301283150911331,0.065520368516445,-0.136150851845741,-0.674222588539124
aktual,0.058912362903357,-0.340103030204773,-0.167420208454132,1.14141392707825,-0.111775614321232,0.365647941827774,-0.213208317756653,-0.21704275906086,0.191925764083862,-0.207310765981674,0.057095177471638,-0.515141367912293,-0.270548462867737,-0.499333262443543,0.118848845362663,-0.159172311425209,-0.194306671619415,0.336281388998032,-0.262867212295532,0.630096673965454
akurat,-0.277206510305405,-0.947205364704132,-0.242906510829926,0.981812179088592,-0.047222897410393,0.760941565036774,-0.082235999405384,-0.195949092507362,0.335400700569153,-0.34681361913681,0.72821843624115,0.127342388033867,-0.591690063476563,-0.090934731066227,0.72111976146698,-0.064799763262272,-0.011545789428055,0.455951899290085,-0.435898900032043,-0.024807104840875
keunggulan,-0.34589421749115,-1.13293719291687,-0.104240946471691,0.995020925998688,-0.029155747964978,0.086093470454216,0.140227735042572,0.103674657642841,-0.122330069541931,-1.17579853534698,-0.387942224740982,-0.52343225479126,-0.40216937661171,-0.220201447606087,0.175277173519135,0.002899094717577,0.576543271541595,0.1207195520401,-0.230363920331001,-0.040891729295254
kelemahan,-0.534093737602234,-0.595079660415649,0.794969379901886,1.18102312088013,-0.461373925209045,0.165521740913391,0.270105183124542,-0.693940341472626,0.103045836091042,-0.082447685301304,0.295290678739548,-0.888065040111542,-0.038592427968979,-0.368924617767334,-0.043404392898083,0.230793684720993,0.176032349467278,-0.585477232933044,-0.046605918556452,0.098648235201836
dilakukannya,-0.072436675429344,-1.06067895889282,0.251729011535645,0.951948642730713,-0.129341959953308,-0.086569741368294,-0.152850672602654,-0.18865393102169,-0.133114293217659,-0.299618512392044,0.052475240081549,-0.044209826737642,-0.383266419172287,-0.273949503898621,0.034689925611019,-0.472697705030441,0.233456820249557,-0.173702940344811,-0.535247504711151,0.396554708480835
proses_perangkat_lunak,-0.062103372067213,-0.409278869628906,0.776005208492279,1.59196293354034,-0.454892724752426,-0.158766821026802,0.06650035828352,-0.2793088555336,-0.423424750566483,-0.261718183755875,0.224716424942017,-0.292592883110046,0.18372917175293,-0.645065784454346,-0.295198678970337,0.091422893106937,0.118522137403488,-0.650254607200623,-0.102356754243374,0.148012027144432
model,0.497187197208405,-0.236965760588646,-0.515513837337494,0.388794302940369,-1.02771306037903,0.245791539549828,0.387683093547821,0.511997222900391,-0.015096439048648,0.025303598493338,0.048919372260571,-0.020800694823265,0.184547021985054,-0.978154361248016,0.189197644591331,0.005725720431656,0.248278453946114,-0.519619464874268,-0.157816231250763,-0.279091030359268
referensi,0.1279506534338,-0.724730789661408,0.366901993751526,0.798640668392181,-0.314851820468903,0.55510413646698,-0.173993676900864,-0.034757602959871,-0.091496847569943,0.110955215990543,0.635776937007904,-0.302202492952347,-0.210425063967705,-0.194140031933785,0.032231573015452,-0.389531046152115,0.108620509505272,-0.137257605791092,-0.034311801195145,0.19500058889389
perolehan,0.067285664379597,0.133632943034172,-0.388190239667892,0.434901535511017,-0.472102105617523,0.796675741672516,-0.813918828964233,-0.43554961681366,0.248246148228645,-0.584261834621429,0.823489367961883,-0.454892963171005,-1.16493165493011,-1.00937330722809,-0.488573431968689,-0.405856400728226,-0.126712262630463,-0.291143357753754,-0.08665457367897,0.091150216758251
area,-0.141267225146294,-0.162008374929428,0.824833571910858,1.28303015232086,-0.630101323127747,0.161344304680824,-0.094112016260624,-0.485164672136307,-0.005691139493138,-0.288036078214645,-0.146766245365143,-0.411170393228531,0.455847889184952,-0.714803814888001,-0.097407571971417,-0.260060995817184,-0.200632989406586,-1.15764105319977,-0.402015417814255,-0.652636110782623
kunci,-0.239256680011749,-0.526719331741333,0.113119028508663,0.655181348323822,-0.291491657495499,-0.108579441905022,0.104081965982914,-0.024996420368552,-0.134879484772682,-0.42933976650238,0.000936776399612,-0.251458913087845,-0.574468016624451,-0.363756567239761,0.146218091249466,-0.544933438301086,0.240540727972984,-0.104406982660294,0.071491368114948,-0.437313675880432
key,0.450768262147903,-0.351568102836609,0.19790643453598,1.07136309146881,-0.354087799787521,-0.47550442814827,-0.367362380027771,0.087507076561451,0.01868243329227,-0.207443088293076,0.292470753192902,-0.866913855075836,0.338762611150742,-0.723949611186981,-0.584456026554108,0.345403909683228,0.163349449634552,-0.503870964050293,-0.119173064827919,-0.304166287183762
level,-0.269986182451248,-0.61727374792099,0.223047256469727,1.61150562763214,-0.432758033275604,0.076659798622131,0.149750739336014,0.304874211549759,0.371714860200882,-0.16476945579052,0.301867097616196,0.505409479141235,0.489146798849106,-1.01189494132996,-0.579633831977844,-0.050257097929716,0.460570752620697,-0.768180310726166,0.123378776013851,0.130838736891747
isu,-0.649103760719299,-0.281429141759872,-0.123931087553501,1.0430748462677,-0.533934950828552,-0.253755748271942,-0.521550953388214,-0.59033727645874,-0.41370216012001,-0.270980566740036,0.234734639525413,-0.295641660690308,-0.024818254634738,0.30275946855545,0.210596725344658,-0.06556735932827,0.839048981666565,-0.207117989659309,-0.318908303976059,0.099150612950325
penerapan,-0.005062337964773,-0.886098742485046,0.116644479334354,0.97976016998291,0.00657842727378,0.280656278133392,-0.1791572868824,0.63143265247345,-0.331171363592148,-0.168154805898666,-0.087471932172775,-0.241843357682228,0.212776586413383,-0.251173734664917,0.104970805346966,-0.374558091163635,0.390534669160843,-0.333429276943207,-0.235516101121902,0.148735895752907
maturity,-0.633153200149536,-0.585025668144226,1.23294425010681,1.89486455917358,-0.881212055683136,-0.057475250214338,-0.083869308233261,0.641454219818115,-0.847722470760345,-0.165117800235748,-0.426933735609055,0.590084612369537,0.225635573267937,-1.04598772525787,-0.05296752974391,0.618621110916138,0.175052866339684,-0.734052419662476,0.436573386192322,-0.205099999904633
prioritas,-0.354028075933456,-0.224800407886505,1.09317994117737,1.20523738861084,-0.48697704076767,-0.253807365894318,-0.547930300235748,-0.18083655834198,-0.306390821933746,0.082216322422028,0.233237445354462,-0.910869896411896,0.268459469079971,-0.706919848918915,-0.56928288936615,-0.744051992893219,0.118900559842587,-0.339044451713562,-0.19154292345047,0.012887232005596
langkah,0.015669858083129,-0.915040552616119,0.887541115283966,0.969293355941772,-0.460328072309494,0.030119601637125,-0.141524031758308,0.096770070493221,-0.042392931878567,-0.059088546782732,0.565860629081726,-0.692895948886871,0.238138660788536,-0.458783239126205,-0.449971556663513,-0.258597195148468,0.207789659500122,-0.03692738711834,-0.085862994194031,-0.118993058800697
perbaikan,-0.191978260874748,-0.669153034687042,0.912716567516327,1.67595827579498,-0.475514829158783,-0.21465453505516,0.029659524559975,-0.240094557404518,-0.311971127986908,0.430946499109268,0.014136031270027,0.060312081128359,-0.129363566637039,-0.479450553655624,-0.446720659732819,-0.098927602171898,-0.099655531346798,-0.753383994102478,-0.66197943687439,0.410714834928513
rencana,-0.822012722492218,-0.915823638439178,0.625102758407593,1.12300646305084,-0.30046272277832,0.95529043674469,-0.568037807941437,0.388884484767914,-0.73282915353775,-0.073975324630737,0.304438710212708,-0.871553003787994,0.104528963565826,-0.075105302035809,-0.106485091149807,0.21935273706913,-0.27148962020874,0.241451054811478,-0.352403908967972,0.424002885818482
temuan,0.257536947727203,-0.116497822105885,0.296572744846344,1.03379273414612,-0.727706134319305,0.594369530677795,-0.254886090755463,0.143951952457428,-0.584772944450378,0.510014951229095,-0.239486813545227,-0.260287255048752,0.214696124196052,-0.425884872674942,-0.247223317623138,-0.299988299608231,0.285884886980057,-0.20413376390934,-0.560069441795349,0.148889824748039
tujuan,-0.161045014858246,-0.919570803642273,0.229916006326675,0.549677133560181,-0.171490132808685,-0.042933415621519,-0.074169538915157,-0.057722706347704,-0.543901205062866,-0.329153716564178,0.160057291388512,-0.238007888197899,-0.348708748817444,-0.530540347099304,-0.049393594264984,-0.445630848407745,0.269024670124054,-0.09607321023941,-0.658491432666779,0.054372377693653
penelitian,0.408480763435364,-0.242233201861382,-0.187037140130997,0.416841953992844,-0.770066440105438,0.167089655995369,0.031492695212364,0.2609483897686,-0.081616640090942,-0.028971362859011,-0.020779693499208,-0.16693252325058,-0.393615305423737,-0.68597549200058,0.087722897529602,-0.459521263837814,0.103956386446953,0.016977766528726,-0.436051398515701,0.123138964176178
metoda,0.539503574371338,-0.501620829105377,-0.043543096631765,1.01837503910065,-0.616852283477783,-0.076075203716755,0.245497554540634,-0.129103556275368,0.359292030334473,0.259701013565063,0.297675877809525,-0.352528423070908,0.123611308634281,-1.01684510707855,0.101989716291428,0.196822658181191,-0.292535036802292,-0.055773440748453,-0.089699156582356,-0.31558683514595
banding,0.595869660377502,-0.345707774162292,-0.190761610865593,0.502431929111481,-0.378452122211456,0.204730167984962,-0.079743213951588,-0.165535375475883,0.132601678371429,-0.007352777291089,0.222633555531502,0.004244964569807,-0.901804029941559,-1.02086663246155,0.309051007032394,-0.129680827260017,0.172371610999107,-0.196863979101181,0.058103077113628,-0.254287600517273
bahan,-0.143632113933563,-0.610447227954865,0.316300004720688,1.52844834327698,0.321524262428284,0.406882226467133,-0.516061782836914,0.136933028697968,-0.231426194310188,0.233184292912483,0.2615946829319,-0.394675761461258,-0.513993084430695,0.233336016535759,0.908493638038635,0.104542255401611,0.244382098317146,0.564312696456909,-0.518202066421509,0.253906637430191
rekomendasi,-0.068734206259251,-0.489913672208786,0.807112693786621,1.44110012054443,-0.660535514354706,0.104944169521332,-0.468026548624039,-0.13426399230957,-0.019670136272907,0.313243627548218,-0.142173483967781,0.016414728015661,-0.107439249753952,-0.470442265272141,-0.475838422775269,-0.32467594742775,0.203300535678864,-0.663773119449616,-0.386134892702103,0.674968838691711
instrumen,-0.039288222789764,-0.269085854291916,0.809689164161682,0.947105884552002,-0.85258162021637,0.266454756259918,-0.654071986675262,0.22125044465065,-0.523281216621399,0.063095383346081,-0.059132009744644,-0.04386368393898,-0.310832589864731,-1.13279700279236,-0.081522703170776,-0.066190458834171,0.915686368942261,0.240154504776001,-0.093389369547367,0.644018828868866
langsung,-0.012906120158732,0.486394077539444,-0.568492233753204,0.869280636310577,-0.509613454341888,0.480663180351257,0.429973483085632,0.044845569878817,-0.669373631477356,0.081912256777287,0.190008625388145,-0.61616712808609,-0.54473078250885,-0.169450774788857,-0.127509951591492,-0.41581392288208,0.018566567450762,0.130161792039871,-0.470521301031113,0.184124156832695
software,0.440835893154144,0.327474623918533,0.406154483556747,1.56846022605896,-0.953440070152283,-0.30985489487648,0.59930431842804,0.297991633415222,-0.724722027778626,0.061208393424749,-0.050696346908808,-0.582905650138855,0.185577765107155,0.120907329022884,0.153762310743332,-0.062184136360884,-0.088520087301731,-0.195763409137726,0.098548285663128,-0.91171658039093
engineering,0.463211745023727,-0.194068148732185,0.410260498523712,1.41793382167816,-1.10068464279175,-0.330014646053314,0.20178247988224,-0.369742423295975,-1.12804079055786,-0.238603010773659,0.925872921943665,-0.206370085477829,0.453295409679413,-0.060727067291737,-0.649509787559509,0.117647908627987,-0.047762650996447,-0.540851354598999,-0.020552774891257,-1.34747433662415
institute,0.022812614217401,-0.073748610913754,0.804386854171753,1.46590125560761,-0.921813547611237,0.593847334384918,-0.114104114472866,0.312631011009216,-0.537394404411316,-0.066241033375263,0.041903454810381,-0.176118567585945,0.474133282899857,-0.421751856803894,-0.602864921092987,-0.006076010875404,0.416593074798584,-0.659733176231384,0.141790568828583,-0.0966916680336
penulis,0.2506403028965,-0.365801185369492,0.025066891685128,0.496069848537445,-0.750756800174713,0.109509967267513,0.044357515871525,0.10693334788084,0.213321879506111,0.099838897585869,-0.130936309695244,-0.109654650092125,-0.481968820095062,-0.448061048984528,0.011920222081244,-0.442963749170303,-0.294598907232285,-0.54822963476181,-0.667395055294037,-0.232302829623222
bukan,-0.226764649152756,-0.394913285970688,-0.358274221420288,0.764070630073547,-0.067135326564312,0.375853002071381,0.030575143173337,-0.051571447402239,-0.219392582774162,-0.735223948955536,0.273747801780701,-0.835215568542481,-0.154978454113007,-0.038356099277735,0.330148488283157,-0.277513474225998,0.286983400583267,0.004232213832438,-0.2140152156353,-0.073478989303112
inovasi,-0.313406884670258,-0.171946316957474,-0.051410332322121,1.02270579338074,-0.375785708427429,-0.323158442974091,0.012298352085054,0.107734404504299,-0.91652512550354,-0.901286780834198,-0.124957732856274,-0.507730185985565,-0.118885912001133,-0.288283586502075,0.202047348022461,-0.875136315822601,0.724117517471314,0.151042893528938,-0.249902918934822,0.066693037748337
metode,0.601350724697113,-0.346721589565277,0.135198533535004,0.533761203289032,-0.546915233135223,0.402079373598099,0.173555046319962,0.345860362052917,0.293445914983749,0.175852432847023,0.087868839502335,-0.259561717510223,-0.597151100635529,-1.0265132188797,0.215626612305641,-0.067552208900452,-0.120400935411453,-0.009072294458747,-0.044178172945976,-0.376467734575272
sejenis,-0.117479421198368,-0.205690115690231,0.296088397502899,1.14650797843933,-0.631085574626923,0.276354640722275,-0.166616559028626,0.277757406234741,-0.541320323944092,-0.513012766838074,-0.482837915420532,-0.297750324010849,-0.143436774611473,-0.407209068536758,0.224110081791878,-0.235842198133469,0.054928440600634,1.04872751235962,-0.334893047809601,-0.466064244508743
literatur,0.606207966804504,-0.77089262008667,0.801683723926544,0.348529785871506,-0.76613849401474,0.408683329820633,-1.11644506454468,0.379905551671982,-0.184768885374069,-0.237988576292992,-0.000453805783764,-0.331674158573151,-0.54662013053894,-0.797420024871826,-0.054888788610697,-0.369329929351807,0.433213353157043,0.179754555225372,-0.370620399713516,0.056354384869337
kombinasi,0.592999517917633,-0.376167058944702,-0.359584301710129,0.669961869716644,-0.877947688102722,-0.067035786807537,-0.602912366390228,-0.187856212258339,0.668416738510132,-0.552419304847717,0.372316777706146,-0.229841068387032,-0.053321421146393,-0.89386373758316,-0.144316226243973,0.080950357019901,0.031633682549,-0.867442131042481,-0.169150292873383,0.045679122209549
proses_pengajaran,-0.678964495658875,-0.354248702526093,0.164523124694824,1.12361037731171,0.153121098875999,0.474702596664429,-0.462208539247513,0.160084083676338,-0.431923240423203,-0.192871510982513,0.424326300621033,-0.390775561332703,-0.219380900263786,-0.010528479702771,0.592577517032623,-0.41093972325325,-0.04478969797492,-0.401304394006729,-1.36530315876007,-0.253847002983093
signifikan,0.095670953392983,0.543076455593109,-1.037184715271,1.19230711460114,-0.486506760120392,-0.068683475255966,0.35055735707283,0.221635237336159,-0.270689457654953,-0.378847509622574,-0.082380063831806,-0.677247881889343,-0.029832376167178,-0.77323830127716,0.363039195537567,-0.790637731552124,0.211496353149414,-0.239019498229027,-0.032920356839895,0.801756322383881
indikasi,0.031007304787636,-0.686774432659149,-0.248389884829521,0.977002382278442,0.032777942717075,0.337477177381515,-0.0671566426754,-0.242195338010788,-0.573098540306091,-0.263657093048096,0.175016522407532,-0.221367910504341,-0.416403412818909,-0.225133493542671,0.331456869840622,-0.405262112617493,-0.004487743135542,-0.141760304570198,-0.235615447163582,0.621540546417236
practice,-0.056756738573313,-0.235858961939812,0.634758412837982,1.31465494632721,-0.793317139148712,-0.299589246511459,-0.526380300521851,0.254584580659866,-0.321352690458298,-0.022487051784992,0.092152357101441,-0.478440910577774,0.41416323184967,-0.632836639881134,-0.80864554643631,-0.309148639440536,-0.025163581594825,-1.01380801200867,-0.766595304012299,0.460585445165634
rendah,-0.133266255259514,-0.415916979312897,-0.197136729955673,0.924698531627655,-0.39372929930687,0.000853539502714,0.261532187461853,0.002945585409179,0.26599907875061,-0.314499348402023,0.315274477005005,-0.178486883640289,-0.461024194955826,-0.372384577989578,0.391496390104294,-0.706960737705231,0.060699455440044,-0.351387739181519,-0.122702158987522,0.867732644081116
perhatian,-0.599387407302856,-0.712845683097839,-0.14828784763813,0.702842473983765,-0.434807658195496,0.173010736703873,-0.236681878566742,0.043952807784081,-0.414320737123489,-0.648467183113098,-0.018527938053012,-0.285374581813812,-0.368367910385132,0.095888495445252,0.31582099199295,-0.346997082233429,0.774324178695679,-0.139926299452782,-0.218331754207611,0.176950797438622
practices,0.034113060683012,-0.516155064105987,0.6665078997612,1.51852929592133,-0.758474051952362,0.165330290794373,-0.362028509378433,0.078553698956966,-0.186270087957382,-0.159914791584015,-0.071758754551411,-0.629761040210724,0.659688949584961,-0.650788307189941,-0.705752193927765,-0.089259102940559,-0.094213604927063,-0.511108994483948,-0.590772211551666,0.578773200511932
lingkup,-0.2222700715065,-0.678690612316132,0.227511942386627,1.02374768257141,-0.376894503831863,0.147720173001289,-0.101527541875839,0.123183824121952,-0.551674127578735,-0.448046803474426,0.064636185765267,-0.275396406650543,-0.134622007608414,0.02455653809011,-0.120969951152802,-0.242959722876549,0.102099567651749,-0.104983605444431,-0.572311818599701,0.281536310911179
pelaksanaan,-0.359853953123093,-0.68821394443512,0.606775283813477,1.55803453922272,0.309762954711914,0.437419891357422,-0.800048470497131,0.001168151502498,-0.845108091831207,0.293742746114731,0.576238632202148,0.152227938175201,-0.207463935017586,-0.005886525847018,0.287018954753876,-0.7119460105896,-0.002430679043755,-0.093288071453571,-0.667961776256561,0.071124210953713
virtual,-0.073634847998619,-1.09260451793671,-0.762820720672607,0.891090214252472,-0.177912920713425,-0.272942930459976,0.523802161216736,-0.052981026470661,-0.220234617590904,-0.203214153647423,-0.189410910010338,-0.34564408659935,-0.485321789979935,0.203258290886879,0.485235959291458,-0.340353816747665,0.59749186038971,-0.016752375289798,0.396647751331329,-0.89787083864212
network,0.043973781168461,-0.966306388378143,-0.465739250183106,0.534972846508026,-0.243262693285942,-0.073659099638462,0.080804087221623,0.357914417982101,0.25961896777153,-0.115712009370327,-0.988859951496124,-0.512784659862518,-0.764213681221008,-0.608683884143829,-0.117134898900986,0.001661684829742,0.099219232797623,-1.19668352603912,0.241218715906143,-0.924389004707336
jaringan,-0.67147171497345,-1.20495975017548,-0.304140359163284,0.739304721355438,-0.137858167290688,0.531871557235718,0.173005938529968,0.441979944705963,0.368102371692658,0.218306586146355,-0.840672194957733,-0.599144577980042,-0.75486671924591,-0.041552487760782,0.312471747398376,-0.79178911447525,-0.33641642332077,-0.569586932659149,0.335563212633133,-0.432306379079819
perubahan,0.239883735775948,-0.830880403518677,0.632698893547058,0.589009463787079,0.04082090780139,0.508007526397705,0.510906994342804,0.484835833311081,-0.331230103969574,-0.229352563619614,0.277571350336075,-1.44273614883423,-0.145913258194923,-0.391591519117355,0.109468504786491,-0.676137387752533,0.410135388374329,-0.312372952699661,0.320547848939896,-0.237596184015274
kepuasan,-0.725244879722595,0.280278116464615,-0.423326671123505,1.3096626996994,-0.540955603122711,0.032286487519741,0.014856643974781,0.089074060320854,-0.043670248240233,0.03101428411901,-0.4224573969841,0.026154670864344,-0.910269141197205,-0.878176629543304,-0.08224780857563,-0.859595358371735,0.268449693918228,0.224815681576729,-1.04112219810486,0.946253955364227
pelanggan,-0.315335899591446,0.401339143514633,-0.15296496450901,1.41164433956146,-0.506989896297455,-0.027397856116295,0.00860651396215,-0.098064608871937,0.460102438926697,-0.870869517326355,-0.36418217420578,-0.520198822021484,-0.623851895332336,-0.191551119089127,-0.094337470829487,-0.231398105621338,0.722601711750031,0.172570556402206,-0.994911909103394,0.156859025359154
internet,-0.694915592670441,-0.407527059316635,-0.72651219367981,0.331629991531372,-1.02764213085175,0.109599530696869,-0.106333188712597,0.140097349882126,-0.061058014631271,-0.357920557260513,-0.728621780872345,-0.233480513095856,-1.21302735805511,0.044424790889025,0.22499243915081,-0.710975468158722,0.724302113056183,-0.632506191730499,0.069954134523869,-0.009859963320196
fenomena,-0.667287945747376,-0.23518580198288,-0.203789860010147,0.692630648612976,-0.310431838035583,0.111047491431236,-0.104687392711639,0.148980811238289,-0.203375458717346,-0.718086063861847,0.118922896683216,-0.755923986434937,-0.929613590240478,0.220912575721741,0.388533741235733,-0.422088503837586,0.188669353723526,0.082182183861733,-0.167949661612511,-0.127708733081818
komunikasi,-0.7782923579216,-0.549777328968048,-0.13254950940609,0.638237059116364,-0.03908109292388,0.40430012345314,-0.515327453613281,-0.28853178024292,-0.415937840938568,0.363866627216339,-0.135204017162323,-0.356914699077606,-0.641041338443756,-0.121875815093517,-0.246857762336731,-1.17785155773163,0.377624213695526,-0.335497498512268,-0.163662746548653,-0.634775102138519
van,-0.724059164524078,-0.597093224525452,0.303540050983429,0.689183294773102,-0.19089275598526,0.279205113649368,-0.019991967827082,0.340101391077042,-0.245820671319962,-0.075264200568199,-0.322824031114578,-0.302852094173431,-0.215323984622955,-1.12270081043243,0.224618002772331,0.178473234176636,0.314516812562942,-0.411121279001236,-0.121726796030998,-0.197822436690331
added,-0.575942039489746,-0.259847611188889,-0.476751029491425,1.26044595241547,0.165963083505631,0.744623959064483,-0.788306593894959,1.04536628723145,-0.376958429813385,-1.00980520248413,-0.737099945545197,-1.62990045547485,-0.169074520468712,-0.849154472351074,-0.135638684034348,0.534268200397491,-0.337319880723953,-0.200019523501396,-0.327572107315063,-0.067745067179203
protocol,-0.232204601168632,-0.274205982685089,-0.437416642904282,1.01333904266357,-0.616718113422394,-0.382786512374878,0.179256826639175,0.203904762864113,-0.134563803672791,0.284208446741104,-0.515304505825043,-0.138713985681534,-0.664635062217712,-0.079555504024029,0.159020036458969,-0.040195170789957,-0.043308142572641,-0.623407125473022,0.432229191064835,-0.423057109117508
protokol,-0.714678347110748,-1.28886771202087,-0.146784543991089,0.823176801204681,-1.02157139778137,-0.275829046964645,0.706818819046021,0.482645839452744,-0.30180087685585,0.417050033807755,-0.196355983614922,-0.519732236862183,-1.3627849817276,0.501255691051483,0.145253330469132,-0.758296847343445,-0.674250602722168,-0.661743462085724,0.284215718507767,-0.774678826332092
poin,-0.30118516087532,-0.388455897569656,0.119133442640305,1.04525685310364,-0.300144672393799,0.0722621306777,0.039483584463596,0.554304540157318,0.152961581945419,0.357213854789734,-0.257076233625412,-0.186468556523323,-0.066819369792938,-0.344768166542053,0.232479408383369,-0.118209600448608,0.103839762508869,-0.442419767379761,0.183419078588486,-0.280823767185211
keandalan,-1.02529525756836,-0.492540836334229,-0.35517692565918,1.3273857831955,-0.371390849351883,0.206280633807182,0.395128965377808,-0.132999032735825,0.239477813243866,-0.226976066827774,-0.902011752128601,-0.447645932435989,-0.451687037944794,-0.535373151302338,0.072624936699867,-0.259572505950928,-0.054380238056183,-0.615339636802673,0.369517952203751,0.366696536540985
keamanannya,-0.487975597381592,-0.765804529190064,-0.009788455441594,0.750888288021088,-0.618697583675385,0.263507485389709,-0.015108860097826,-0.070463582873345,-0.199830964207649,-0.219060063362122,0.240195378661156,-0.263618886470795,-0.576925337314606,0.525029063224793,0.221766576170921,-0.195496127009392,0.326448917388916,-0.531000196933746,-0.210035249590874,0.041357632726431
pemanfaatan,-0.587105691432953,-0.75881165266037,-0.357497930526733,0.56240051984787,0.147799044847488,0.279037684202194,-0.219671934843063,0.095016591250897,-0.345961600542068,-0.361449629068375,-0.065452001988888,-0.214014455676079,-0.439036190509796,-0.505533456802368,0.438346892595291,-0.703103840351105,0.48446387052536,-0.009754209779203,-0.277724057435989,-0.234036758542061
cenderung,-0.009153066202998,-0.438864141702652,-0.405601918697357,0.842609763145447,-0.033177312463522,-0.294808030128479,0.067433185875416,-0.242137923836708,0.00620798394084,-0.401134043931961,0.416260212659836,-0.248580977320671,-0.929957449436188,-0.604828953742981,0.340207397937775,-0.689477384090424,0.345526367425919,-0.094780594110489,0.166863486170769,0.643967390060425
kuat,-0.327715784311295,0.36909481883049,-0.667000770568848,1.15074253082275,-0.17841050028801,-0.04160775244236,0.154799923300743,-0.282438784837723,-0.830860495567322,-0.451256155967712,-0.32931062579155,-0.580243706703186,-0.266256541013718,-0.694121718406677,0.418630659580231,-0.674263536930084,0.277423769235611,-0.393472462892532,0.022431245073676,0.509033739566803
murah,-0.649119913578033,-0.483419865369797,-0.394789636135101,0.795873761177063,-0.497766852378845,-0.243609204888344,0.200013965368271,0.074227921664715,-0.062174689024687,-0.508632600307465,-0.066459812223911,-0.747094631195068,-0.914864063262939,0.392114996910095,0.920051455497742,-0.334437161684036,0.005486939568073,-0.065490216016769,-0.219158679246902,-0.140864595770836
diakses,-0.794692754745483,-0.535548865795136,-0.526178419589996,0.487660080194473,-0.774757325649262,0.442159444093704,0.030846698209643,0.223279029130936,-0.003317239461467,0.1277095079422,0.532556116580963,-0.12443495541811,-1.15035879611969,0.6168133020401,0.322309166193008,-0.55022931098938,0.517336964607239,-0.242990210652351,-0.034244947135449,-0.385780930519104
kalangan,-0.554002583026886,-0.630661249160767,0.152446210384369,0.574661433696747,-0.059596315026283,-0.082211002707481,-0.118363752961159,-0.020676659420133,-1.04879140853882,-0.23657663166523,0.040847536176443,-0.513019025325775,-1.24310874938965,-0.513631761074066,1.02944231033325,-0.358049929141998,0.540465474128723,0.14688041806221,0.200715497136116,0.025321077555418
luas,-0.995027244091034,-0.770372271537781,-0.173569306731224,0.3564413189888,-0.399010479450226,0.071733124554157,-0.022226186469197,0.213238105177879,0.00872718822211,-0.757982194423676,0.478630274534226,-0.581242978572845,-0.878699362277985,0.100788950920105,0.62089604139328,-0.310622364282608,0.491706758737564,-0.393541485071182,-0.042405806481838,-0.398267716169357
kecil,-0.051859736442566,-0.36337399482727,0.393399447202682,0.9314244389534,-0.628925442695618,-0.318587958812714,0.12065327167511,0.199620619416237,-0.125910937786102,-1.16198015213013,-0.02456477470696,-0.815962672233581,0.283392071723938,-0.245534881949425,1.14782059192657,0.08504681289196,-0.005852764472365,-0.942560076713562,0.079444222152233,-0.611897587776184
vpn,-0.438625514507294,-0.430484145879746,-0.284236282110214,1.05067133903503,-0.704120218753815,0.163925319910049,-0.063994392752647,0.44319674372673,0.069909207522869,-0.35283762216568,-0.983770072460175,-0.601065754890442,-0.186702370643616,0.040603242814541,0.111630491912365,-0.169114232063293,0.208941802382469,-0.269675403833389,0.208549618721008,-0.308946758508682
